1956 100
318 -0.26098582 0.3975528 0.15996076 0.3498341 0.114019044 -0.75880057 0.252933 0.97524846 -0.4217041 -0.32873374 -0.46112576 -0.7607583 -0.33739582 0.099672906 0.24777435 -0.24296382 0.035781745 -0.52579844 0.16853203 -0.8265344 0.23678693 0.12427156 -0.02676917 -0.35467452 -0.12005319 -0.06164378 -0.52199876 -0.08368832 -0.46746013 0.13818844 0.6234113 -0.216533 -0.07259033 -0.18899135 -0.08483795 0.59832376 0.35908863 -0.5909955 -0.17004068 -0.8739867 0.051276572 -0.5100879 -0.16823103 0.1617184 0.2629459 -0.05170295 -0.26758555 0.08717058 0.00018665823 0.26265615 0.04038128 -0.34259832 -0.27645513 0.25431 -0.5102391 0.38365254 0.29273862 0.06161374 -0.40835926 0.022851072 0.05586348 0.32157078 -0.23613153 0.09037102 -0.37016904 0.3317185 0.17085509 0.14147054 -0.3476305 0.62711096 -0.46234325 0.43495193 0.49615088 -0.2907624 0.43891007 0.31976056 -0.14385861 -0.22569397 -0.20824145 0.068974964 -0.06615207 -0.05928115 -0.13336661 0.6548699 0.046262044 0.06399224 -0.32310504 0.5221856 0.48832023 0.25584814 0.36242026 0.22001155 -0.18229654 0.17741983 0.7813045 0.34251893 0.08188311 -0.46239716 0.2850262 -0.006303555
356 -0.29278684 0.37832025 0.15219828 0.37296075 0.15677677 -0.76972634 0.2341176 0.9603296 -0.39856464 -0.32824054 -0.47772267 -0.74775445 -0.35824984 0.10102385 0.31294945 -0.21184364 0.063924074 -0.4833477 0.22263096 -0.78340715 0.20944709 0.14424823 -0.031743612 -0.36485925 -0.10682617 -0.04049596 -0.5274356 -0.04212923 -0.4565979 0.16628435 0.66012657 -0.24745786 -0.10078724 -0.20094322 -0.088199966 0.6029094 0.3525713 -0.566617 -0.14916429 -0.81045324 0.10267315 -0.52830553 -0.15336147 0.17723615 0.2779855 -0.0014654322 -0.23635107 0.027279612 0.0043316674 0.22107796 0.056690536 -0.34406874 -0.2554468 0.26672503 -0.50948006 0.43745354 0.29667 0.10033076 -0.38973853 0.05108659 0.020452593 0.33075133 -0.25281635 0.10538233 -0.28461134 0.34345198 0.16503398 0.13225801 -0.29824683 0.6442807 -0.45996496 0.38218606 0.4940953 -0.26463 0.42638212 0.30696514 -0.18239841 -0.22281715 -0.17481275 0.04513871 -0.072079755 -0.037299052 -0.09484487 0.6198577 0.04525883 0.08560635 -0.33873105 0.49548826 0.5047981 0.24751753 0.3668386 0.16987088 -0.1943083 0.15233141 0.7380606 0.34423795 0.103145726 -0.46068093 0.27553555 0.012117706
296 -0.26372126 0.387719 0.152423 0.37897727 0.15827045 -0.74636364 0.22472663 0.9931582 -0.4503162 -0.33588165 -0.503515 -0.77815104 -0.32157126 0.10994385 0.27275184 -0.2490895 0.047571525 -0.510978 0.16296577 -0.84202963 0.20133223 0.09305389 -0.077708535 -0.39705703 -0.11098378 -0.06477012 -0.5053409 -0.05543479 -0.47774637 0.17432037 0.6521489 -0.24958012 -0.1392893 -0.2023819 -0.09347454 0.6157477 0.3776355 -0.5873124 -0.13871136 -0.88095 0.06591117 -0.5354409 -0.17348298 0.18136503 0.26581627 -0.045992713 -0.2631603 0.095424615 -0.013634149 0.23169044 0.05123066 -0.367812 -0.27521613 0.27433622 -0.5692625 0.3878824 0.26831093 0.055695932 -0.42029616 0.008426143 0.07195037 0.33156693 -0.22462799 0.098601386 -0.3640316 0.34903958 0.2009025 0.15013842 -0.34177992 0.64964443 -0.45972186 0.43850416 0.4959526 -0.3123639 0.44926533 0.34710497 -0.14685264 -0.20673402 -0.17518143 0.057598885 -0.041653074 -0.06908674 -0.15425216 0.6539682 0.04425518 0.056149993 -0.3624327 0.5182883 0.51418406 0.25218228 0.34573478 0.24703099 -0.18171047 0.18399394 0.7848771 0.33617342 0.07834202 -0.4750589 0.31193778 -0.013185796
593 -0.35023752 0.4142115 0.14676973 0.13423544 0.16351087 -0.7367483 0.27776027 0.9744379 -0.36201358 -0.26410732 -0.38262832 -0.77430654 -0.38662153 -0.017374108 0.3569864 -0.28816366 0.12260704 -0.61072874 0.30988097 -0.7569483 0.29304138 0.25170588 0.003460353 -0.21891157 -0.13249661 0.057713464 -0.585132 -0.11351569 -0.49282247 0.05427912 0.70346177 -0.20333968 -0.05066298 -0.16621865 -0.11639847 0.64054596 0.33708704 -0.64009774 -0.387594 -0.82442623 0.063492745 -0.4990259 -0.10307517 0.17835723 0.37814388 -0.064264 -0.18182664 -0.07396081 0.001767283 0.30233672 0.059824307 -0.3339012 -0.30644923 0.18334708 -0.47809264 0.50909597 0.36803666 0.20553535 -0.36760852 -0.021463793 -0.049293548 0.38072082 -0.2757108 0.17372912 -0.32712758 0.3645724 0.06498894 0.14716657 -0.4096479 0.6194007 -0.5249822 0.48800448 0.5769459 -0.15002555 0.425868 0.28024843 -0.21556464 -0.28209233 -0.3217012 0.106164105 -0.18729204 -0.10032193 -0.15359476 0.7516048 0.019374745 0.11664683 -0.23853502 0.5874392 0.56987244 0.31793678 0.38937128 0.08906452 -0.19282821 0.12269536 0.81759256 0.5239539 0.1935647 -0.42578351 0.35068133 -0.041455038
2571 -0.4576228 0.59932977 -0.09008434 -0.100382835 -0.13634966 -0.89807916 0.33338782 0.9801742 -0.32723978 -0.19136256 -0.3901991 -0.7576763 -0.38545808 -0.0026313826 -0.016520262 -0.38373765 -0.04319312 -0.684831 0.053780515 -0.9838442 0.46583524 0.03824812 0.20550282 -0.117952056 -0.21374278 -0.14880016 -0.69183886 -0.6955937 -0.6237049 0.06842826 0.6867602 0.20038642 0.16358899 -0.044517685 0.010965877 0.510577 -0.23701581 -0.61587137 -0.28722128 -1.1991868 0.03981181 -0.5501215 -0.12642553 0.0849587 0.40084732 -0.33531606 -0.3886412 -0.027447974 0.24225493 0.4499571 0.15842825 -0.39085704 -0.23887956 0.0024250147 -0.440968 0.36283246 0.5416747 0.08266516 -0.55475384 -0.030669387 0.20587558 0.111949466 -0.30428848 0.13581847 -0.86027986 0.40665755 0.24426006 0.1576802 -0.56674886 0.45216557 -0.64808756 0.2480721 0.695114 -0.2177582 0.34412044 0.5565382 -0.012511232 -0.19590218 -0.5221238 0.2025482 -0.30187747 -0.10374547 -0.17590109 0.8878926 0.31065488 0.013879529 -0.10274969 0.6716277 0.4713144 0.083768405 0.50087434 0.13890304 -0.16461435 0.08605495 0.8967144 0.4212096 0.32746726 -0.59542626 0.25263304 0.028029626
260 -0.24782567 0.37247637 0.14847778 0.32046038 0.10910353 -0.69352305 0.20916337 0.9267199 -0.42506537 -0.3195037 -0.45770568 -0.7198801 -0.3046446 0.09361694 0.19668758 -0.24869472 0.013740414 -0.5182543 0.119112894 -0.78332514 0.19411243 0.0634221 -0.060747992 -0.33846998 -0.12955526 -0.06897311 -0.47693703 -0.10939348 -0.4320897 0.15844312 0.5922681 -0.20386112 -0.124359064 -0.18434735 -0.058956426 0.57115215 0.34003255 -0.54862624 -0.118612416 -0.8513936 0.072523244 -0.50929165 -0.17863174 0.14731531 0.22417513 -0.08344868 -0.25948793 0.1250879 0.0025740196 0.22129196 0.05083299 -0.35111767 -0.23173389 0.2663653 -0.53356284 0.34440887 0.25991076 0.030441301 -0.4057131 -0.011689097 0.09333339 0.29881722 -0.20982257 0.08061914 -0.37304032 0.30662957 0.1901199 0.1435832 -0.34188628 0.5688487 -0.43557882 0.4044422 0.46673787 -0.29946017 0.41873795 0.3278883 -0.15179123 -0.18032981 -0.16871382 0.074115664 -0.036047272 -0.07017432 -0.14748436 0.6012522 0.045934714 0.032976877 -0.3271653 0.5121983 0.4526095 0.22250159 0.34474438 0.24810669 -0.19118346 0.17746277 0.73295164 0.30798253 0.05574823 -0.45637473 0.2735503 -0.016644213
2959 -0.37166512 0.48698336 -0.07215627 -0.072519325 -0.12284445 -0.7709807 0.25958413 0.8074817 -0.27803448 -0.15184508 -0.31965786 -0.6026366 -0.32347 0.01663832 -0.025721585 -0.3191925 -0.012755473 -0.5537031 0.029876823 -0.8206401 0.37955403 0.0063053416 0.16183315 -0.10446469 -0.16462271 -0.14947169 -0.5842014 -0.5917419 -0.53103054 0.057879895 0.5666443 0.18144375 0.11928208 -0.047485378 -0.0006313198 0.41796228 -0.23087126 -0.505877 -0.22684066 -1.0199928 0.054189272 -0.45215693 -0.070074014 0.045800626 0.34137207 -0.25326687 -0.34815934 -0.04216204 0.2103554 0.3629918 0.11943811 -0.35014582 -0.18927884 0.02132791 -0.36072746 0.2960408 0.45087248 0.06987888 -0.48792705 -0.012011583 0.17070183 0.067806974 -0.2512123 0.11982584 -0.721984 0.34533495 0.21056105 0.1285974 -0.4714761 0.3362841 -0.5069292 0.17809679 0.57195544 -0.19721028 0.30145952 0.47357538 -0.010570801 -0.13199045 -0.44219223 0.18840855 -0.21544965 -0.084373 -0.13523114 0.75495255 0.2839464 0.012699816 -0.085601345 0.5404366 0.3941951 0.074703746 0.40322414 0.12882914 -0.14947629 0.048183516 0.72026616 0.35261157 0.2765955 -0.5187986 0.20507583 0.03858916
527 -0.25716525 0.31624827 0.13355567 0.21785302 0.13337184 -0.62254465 0.22030614 0.8053819 -0.3285582 -0.2455853 -0.36573103 -0.6391473 -0.31100136 0.026983144 0.29289442 -0.2065732 0.08553244 -0.4619293 0.25171414 -0.65756786 0.20980285 0.19600184 -0.015779262 -0.24738854 -0.100092836 0.027712164 -0.48219493 -0.044547997 -0.40361515 0.09057772 0.56966597 -0.19006497 -0.057462987 -0.1599174 -0.101890974 0.5195994 0.28874153 -0.50800115 -0.25387838 -0.68037456 0.077007376 -0.43176547 -0.106435224 0.16082431 0.29442728 -0.021630201 -0.18296373 -0.037739504 0.012866149 0.2183781 0.03069602 -0.27384138 -0.22648859 0.17978531 -0.41204658 0.41620627 0.26336375 0.14090711 -0.3158548 0.025546037 -0.012551421 0.29264772 -0.23048124 0.1438295 -0.23661879 0.3074902 0.0697407 0.12902611 -0.302731 0.53470707 -0.413178 0.3812586 0.45812738 -0.17299078 0.35637796 0.23851453 -0.15803644 -0.23589605 -0.20128292 0.057511054 -0.122342914 -0.06605967 -0.11796598 0.5812073 0.0196712 0.09112547 -0.2359636 0.4690817 0.4668332 0.24816152 0.3290061 0.09140641 -0.17211437 0.12629402 0.6535023 0.37663743 0.12008291 -0.36212596 0.27798754 -0.020286284
1196 -0.1262101 0.6996405 0.11530224 -0.40068802 -0.10762979 -0.78610337 0.5505635 0.8049273 -0.2242691 -0.15032512 -0.08285016 -0.85134864 -0.21664354 -0.084952556 0.031398073 -0.33803844 -0.16669506 -0.74623406 0.09781516 -0.7516241 0.5229187 0.3265828 0.53388786 -0.14164545 -0.20943464 0.07561566 -0.6737667 -0.6117649 -0.4077428 -0.17232901 0.46451917 0.20626609 0.57888675 0.23973241 -0.0933179 0.57010895 0.06942605 -0.5437747 -0.71520597 -0.88320005 -0.30356583 -0.25586018 -0.06955066 0.17033368 0.28089014 -0.32450247 -0.17331277 -0.031862225 -0.061586667 0.6656671 0.13347152 -0.15937996 -0.4949166 -0.22592431 -0.24434714 0.16729446 0.56267893 0.20858482 -0.28452936 -0.26611125 -0.009371993 0.1300363 -0.047873873 0.12873136 -0.96047276 0.3230219 -0.092245385 -0.016043495 -0.70655435 0.4395618 -0.7391988 0.46709895 0.7382857 0.25787884 0.2654537 0.21007842 -0.0027431913 -0.53306013 -0.8181553 0.51862955 -0.47287595 -0.28522587 -0.31723073 0.6507183 0.168573 -0.14676656 0.082681835 0.7433754 0.42052954 0.13684633 0.34028217 0.22777763 -0.013309192 0.09475945 0.9444321 0.52140224 0.4854313 0.02372102 0.10290481 -0.3724682
110 -0.2593787 0.4205379 0.114455216 0.2886511 0.06850366 -0.72488314 0.18675521 1.0048964 -0.4717657 -0.3147253 -0.46514374 -0.77300113 -0.28500396 0.1281142 0.08447279 -0.3051005 -0.012451804 -0.62857944 0.038815465 -0.8742475 0.2682213 0.003571732 -0.093429305 -0.32238257 -0.13412766 -0.116467334 -0.52823806 -0.23628192 -0.474137 0.14437841 0.60223544 -0.10290446 -0.12842096 -0.14906238 -0.025999507 0.5905508 0.26952818 -0.6154977 -0.10891268 -1.0122411 0.051421586 -0.5351834 -0.19910431 0.1245809 0.2161862 -0.1776298 -0.33239362 0.18505935 0.06032698 0.27121475 0.08046251 -0.3826278 -0.24077107 0.26004007 -0.58060896 0.31280395 0.27332634 0.0040633697 -0.4668083 -0.03242581 0.15022896 0.29125383 -0.23787446 0.09259907 -0.54691327 0.3018956 0.23166144 0.15205574 -0.4159479 0.5663674 -0.48830506 0.40401417 0.5078895 -0.3849666 0.4452004 0.3872248 -0.11761794 -0.17324182 -0.20008662 0.11208321 -0.06664275 -0.08184268 -0.23463608 0.7047435 0.097245514 0.018805383 -0.3319161 0.5760611 0.4828509 0.19369857 0.36544755 0.29947707 -0.19292405 0.20207886 0.79857624 0.3064087 0.043599285 -0.52106583 0.28540364 -0.001983009
1198 -0.04698544 0.65205395 0.121058024 -0.43723184 -0.14490345 -0.7337946 0.5175182 0.74351674 -0.19293016 -0.15165901 -0.030472387 -0.78545964 -0.19991782 -0.09326142 -0.003106159 -0.30566627 -0.15681788 -0.700505 0.10291758 -0.6825422 0.49404496 0.31155202 0.5647663 -0.12025608 -0.21057054 0.088396885 -0.63527244 -0.587058 -0.3427865 -0.1725288 0.3749036 0.22760488 0.62498975 0.26662445 -0.08544364 0.5320693 0.07079742 -0.5191144 -0.7361143 -0.7828323 -0.3251602 -0.20395645 -0.06439772 0.18442439 0.24178363 -0.3124172 -0.15908884 -0.052036732 -0.07630252 0.6602808 0.13020861 -0.12384014 -0.50842553 -0.2502834 -0.20433754 0.12119508 0.52252096 0.18854281 -0.24062277 -0.2593973 -0.027677761 0.10086781 -0.015998408 0.11995788 -0.93203515 0.29562342 -0.13103497 -0.055766843 -0.6685939 0.38208133 -0.6864823 0.4483004 0.67834824 0.30270138 0.24423747 0.19036986 0.030205343 -0.53071845 -0.8022823 0.53123534 -0.45966765 -0.25441998 -0.3135806 0.57682645 0.122919545 -0.1555816 0.09899382 0.72210443 0.3895443 0.11143803 0.3235738 0.22721076 -0.004399884 0.09408121 0.86442333 0.47057527 0.48574266 0.07433671 0.0638517 -0.40411654
50 -0.19885187 0.378626 0.13850614 0.29710326 0.094481155 -0.6322101 0.14828221 0.9257755 -0.46748865 -0.29529008 -0.4359541 -0.69654334 -0.24691556 0.12773372 0.093298845 -0.2918811 -0.021453427 -0.56093997 0.013598402 -0.8084009 0.21905386 -0.0319166 -0.117272265 -0.31490362 -0.14017722 -0.11286841 -0.46143806 -0.17676051 -0.40254748 0.15301223 0.5228471 -0.1315149 -0.16327083 -0.15604845 -0.014464193 0.54113525 0.29527736 -0.577409 -0.09680491 -0.93440706 0.03344396 -0.5026197 -0.19094597 0.13957512 0.16845627 -0.15270023 -0.2853267 0.19287483 0.03629822 0.21772297 0.060786013 -0.37234592 -0.20110121 0.26585183 -0.56529903 0.27446672 0.2211926 -0.0019187039 -0.42759618 -0.031854894 0.1430205 0.2689546 -0.22148958 0.080852926 -0.4723532 0.27336687 0.24360377 0.16923133 -0.39431238 0.54458773 -0.4436642 0.39529306 0.45093817 -0.36103153 0.42283058 0.3481553 -0.12265176 -0.13219245 -0.1535483 0.079471864 -0.04375559 -0.0580911 -0.23699985 0.6084718 0.06685294 0.019495944 -0.31989717 0.50912976 0.4398745 0.1843229 0.35095465 0.28601053 -0.20211282 0.19188233 0.7170964 0.2692982 0.00809206 -0.4884308 0.241979 -0.0064912457
858 -0.2959223 0.44842684 0.12324469 -0.10959349 0.05305558 -0.69937825 0.3181741 0.8605048 -0.25991628 -0.19541718 -0.28647298 -0.7565108 -0.3209427 -0.04013559 0.17246145 -0.32194257 -0.008652918 -0.61144245 0.22869462 -0.7474022 0.35489246 0.21659447 0.10192991 -0.15259564 -0.15094447 0.054677002 -0.57506365 -0.29542133 -0.46208444 0.006625405 0.5927772 -0.023611346 0.11466515 -0.0426187 -0.094411306 0.5104372 0.16979387 -0.57879025 -0.41701758 -0.84295434 -0.040055025 -0.4177407 -0.11270201 0.11529678 0.30062428 -0.21518694 -0.15225519 -0.030035673 -0.010663903 0.40723473 0.07251366 -0.30232823 -0.30352712 0.07463305 -0.38552657 0.38024417 0.41717717 0.19041157 -0.3255781 -0.09564728 -0.014487784 0.26951277 -0.21273328 0.16096224 -0.55378973 0.36010763 0.053829193 0.07332865 -0.48722336 0.5270611 -0.56386524 0.4559967 0.6041206 -0.06947435 0.34979546 0.2734898 -0.11751822 -0.30311015 -0.4669649 0.21376765 -0.26651 -0.14136249 -0.21418864 0.7343407 0.09130591 0.027201183 -0.12420686 0.6016666 0.4765204 0.24754176 0.35923213 0.12673172 -0.12849656 0.105106086 0.8072752 0.5077174 0.2879224 -0.29153538 0.2747153 -0.09432713
2858 -0.4526591 0.5847463 -0.083918825 -0.08184352 -0.13748406 -0.8863085 0.28942713 0.9302113 -0.3267802 -0.18379444 -0.389339 -0.70089734 -0.38482508 -0.0025881468 0.0019897928 -0.35662022 -0.017221654 -0.645146 0.037604023 -0.94032127 0.44626608 0.03349574 0.17960411 -0.12412644 -0.17982441 -0.14959702 -0.68008095 -0.66653377 -0.5999692 0.08467165 0.6584959 0.19033876 0.14082426 -0.06799502 0.014134016 0.48735762 -0.23891707 -0.5654106 -0.25948432 -1.1603492 0.042144854 -0.52564853 -0.09093712 0.072409384 0.37938845 -0.30821803 -0.38512224 -0.03362862 0.25223932 0.4216273 0.14640543 -0.3926333 -0.22968152 0.030615674 -0.42504194 0.36330575 0.52272314 0.09109087 -0.55298233 0.00013964066 0.20508559 0.115862 -0.29379472 0.14746033 -0.8050435 0.38524035 0.24971883 0.15340306 -0.52633154 0.40541163 -0.5956662 0.20769753 0.64972264 -0.2315573 0.3532098 0.55444247 -0.022368135 -0.16383408 -0.49838486 0.20235844 -0.25655293 -0.1032769 -0.1435739 0.8709428 0.3208063 0.033883993 -0.10918662 0.6479338 0.46424204 0.08090045 0.4877565 0.16341566 -0.16484217 0.0676454 0.83319914 0.4069358 0.312384 -0.5951453 0.22832109 0.049842976
1210 -0.04332845 0.69028693 0.060294375 -0.388288 -0.16202267 -0.7644555 0.5152458 0.7868415 -0.2015242 -0.161932 -0.063301526 -0.7941801 -0.27252275 -0.054430135 -0.04083682 -0.3410427 -0.12615414 -0.72745925 0.06968338 -0.69300073 0.5466022 0.31336504 0.5470567 -0.11716372 -0.22749116 0.033832487 -0.67551416 -0.6433076 -0.35547996 -0.17577441 0.39295116 0.23246652 0.61145985 0.22490609 -0.070444144 0.5291595 0.02964643 -0.556183 -0.6994169 -0.8404252 -0.30319276 -0.23788846 -0.014206714 0.17690432 0.2678893 -0.28627706 -0.23608123 -0.0611786 -0.011068909 0.67184246 0.17965788 -0.13547969 -0.49757895 -0.28226468 -0.2448162 0.13573536 0.57747346 0.1691834 -0.29282266 -0.23770745 -0.0044937986 0.098675326 -0.06572629 0.13218501 -0.95932424 0.30618867 -0.103167124 -0.028907124 -0.6877695 0.40048257 -0.704507 0.36942935 0.71789116 0.23261611 0.23799866 0.21883076 0.041871928 -0.47803232 -0.81429815 0.49065128 -0.4798595 -0.22484809 -0.32172507 0.59855646 0.18743818 -0.1246084 0.08322345 0.7465785 0.41272208 0.09462308 0.3492316 0.19996624 -0.026265403 0.07644325 0.87761635 0.43618992 0.4398711 0.03175018 0.055281084 -0.36805627
589 -0.3208481 0.3595002 0.13357604 0.15244852 0.14814301 -0.6578966 0.23255157 0.8754614 -0.34200436 -0.2147924 -0.36419672 -0.7077117 -0.35859084 0.00087266124 0.32055476 -0.25519446 0.10521985 -0.5253363 0.30715802 -0.6747177 0.25021762 0.24483958 -0.021939635 -0.21030411 -0.113454245 0.052774403 -0.53898555 -0.068541475 -0.44409418 0.042862035 0.62937033 -0.20571621 -0.0434155 -0.14297312 -0.12339144 0.58038384 0.31702247 -0.5732054 -0.3474839 -0.72011846 0.07303768 -0.45709842 -0.109862484 0.18289597 0.3412034 -0.025861474 -0.17469656 -0.08854068 0.017174626 0.24803154 0.045387387 -0.2981019 -0.24311323 0.19224124 -0.4239679 0.47992948 0.33200085 0.17400761 -0.3289919 0.011696926 -0.05183895 0.33323798 -0.27237454 0.15446068 -0.24796438 0.32310942 0.0481027 0.1428651 -0.34982306 0.5828613 -0.4820473 0.4373148 0.52698606 -0.15511744 0.39235198 0.26181862 -0.19326557 -0.26924503 -0.26072025 0.07787376 -0.17270054 -0.092224956 -0.1391805 0.6656526 -0.0007507156 0.123538055 -0.24522655 0.5038379 0.5319868 0.31693116 0.35538542 0.07634955 -0.18603003 0.0993367 0.709643 0.47890678 0.16612004 -0.3621569 0.3263293 -0.017654033
1 -0.16623561 0.27933717 0.07687131 0.13285579 0.036471393 -0.46026987 0.117520034 0.6490673 -0.2971947 -0.18031321 -0.292175 -0.51075727 -0.18156888 0.08701058 0.018778019 -0.21312405 -0.028870547 -0.41128737 0.0017675967 -0.5730419 0.2088514 0.007753716 -0.04281485 -0.1657715 -0.09870292 -0.062012985 -0.3266865 -0.2238664 -0.30766332 0.08473128 0.37532556 -0.035244398 -0.06370638 -0.10111361 -0.0021859275 0.3797776 0.13942455 -0.420457 -0.09851398 -0.69940054 0.017070504 -0.35387117 -0.12703943 0.0852075 0.14709526 -0.13471566 -0.23176463 0.10401887 0.057919096 0.17762893 0.046860714 -0.2596056 -0.15402012 0.14331216 -0.36906713 0.20137104 0.19342275 -0.0059259003 -0.3174036 -0.020889489 0.11239772 0.17215957 -0.16819343 0.07659032 -0.3862844 0.19998485 0.14212057 0.115118675 -0.28917304 0.36688143 -0.32248977 0.25593072 0.3511418 -0.2361882 0.28117907 0.24928048 -0.05536085 -0.12463788 -0.1527151 0.08438935 -0.06968681 -0.07167924 -0.17828906 0.44921276 0.06684835 0.017275292 -0.19433936 0.3814792 0.29720888 0.10068764 0.27391025 0.18631135 -0.11842614 0.11841365 0.5016867 0.2242439 0.043333903 -0.349457 0.15684606 -0.0060068225
4993 -0.40434092 0.5611439 -0.008384822 -0.09699768 -0.12905715 -0.9128024 0.18897788 0.9425882 -0.30281654 -0.16362508 -0.33823568 -0.6907485 -0.25178334 0.06954337 0.011221164 -0.40868747 -0.014105686 -0.64928246 0.0006153681 -0.7749379 0.3852095 -0.0029784618 0.008801901 -0.12196066 -0.23543197 -0.22166294 -0.5889531 -0.6751431 -0.633721 0.092316896 0.5627284 0.14888278 -0.007940864 -0.1332106 0.0130465645 0.47525236 -0.3113503 -0.44881296 -0.07156421 -1.1178845 0.093574114 -0.4957926 -0.03265201 0.02552837 0.3438668 -0.37906247 -0.4297247 -0.014328514 0.25996932 0.32498294 0.15058255 -0.34571505 -0.0813228 -0.00062163995 -0.30225915 0.41196445 0.512928 0.13607666 -0.5041124 0.09154962 0.19309479 0.037642043 -0.3477871 0.13317029 -0.74072087 0.39268202 0.2161042 0.20054857 -0.41176996 0.37680164 -0.49410316 0.085797995 0.63537824 -0.27679536 0.31138855 0.6086843 -0.041664455 -0.08556667 -0.38813555 0.17144293 -0.15892142 -0.0026718746 -0.17778294 0.83603585 0.35018727 0.074505866 -0.09289696 0.5737987 0.58008057 0.17623231 0.4405307 0.07096491 -0.15591705 0.018225633 0.7123312 0.3588285 0.23944978 -0.53596014 0.29664835 -0.036340963
480 -0.3480516 0.44283867 0.11642815 0.27098086 0.14330411 -0.8670398 0.28052646 1.0887283 -0.4203489 -0.31484804 -0.49521372 -0.83103293 -0.40857163 0.07419294 0.34730744 -0.28713572 0.092010684 -0.6002951 0.30909088 -0.8549211 0.30438 0.20580117 -0.010278043 -0.30566388 -0.12312293 -0.020708295 -0.6450755 -0.13767816 -0.5234479 0.123634115 0.7656476 -0.206066 -0.064549 -0.20016328 -0.09875087 0.66530496 0.30646053 -0.6541315 -0.2673797 -0.9660597 0.08997052 -0.5822895 -0.11296314 0.19283545 0.37038875 -0.04534283 -0.28573117 -0.054274578 0.063807584 0.28741813 0.06397189 -0.37401414 -0.302617 0.22685625 -0.5260786 0.5417697 0.37191468 0.16397902 -0.44432932 0.049169824 0.01579022 0.36214152 -0.30408937 0.18134046 -0.37603703 0.40825352 0.13795383 0.17128144 -0.39997688 0.69698757 -0.5432905 0.42581138 0.61626303 -0.25004902 0.46895373 0.3528107 -0.20587781 -0.27121982 -0.29421347 0.091913715 -0.15435576 -0.06904445 -0.12880081 0.78317535 0.091287926 0.121149 -0.31833184 0.61475575 0.5941465 0.2852095 0.4680168 0.106573515 -0.21404207 0.15096608 0.85886 0.46325943 0.16751774 -0.5284149 0.34257787 -0.0002665832
2028 -0.40909165 0.6072161 -0.04564616 -0.063937426 -0.1509886 -0.88032717 0.3538152 0.9720799 -0.3156051 -0.21665105 -0.3715765 -0.80086875 -0.3454728 0.0094343955 0.00069579436 -0.3901047 -0.03260793 -0.71177715 0.017329715 -0.93761367 0.44458628 0.11549986 0.1488515 -0.15136835 -0.2064934 -0.12459775 -0.6635984 -0.6853448 -0.5803288 0.06971655 0.66746145 0.13360275 0.1606285 -0.026651258 -0.02991347 0.58203626 -0.15947096 -0.6684507 -0.2940175 -1.1965257 0.028191023 -0.5142187 -0.104455695 0.07631402 0.36358094 -0.33193174 -0.38761395 -0.03586263 0.19227171 0.4606278 0.13671288 -0.4056171 -0.27786323 0.015386409 -0.45349678 0.4229721 0.54198575 0.10777124 -0.5027642 -0.025378183 0.17487527 0.15417281 -0.31310958 0.1344994 -0.85162634 0.4195546 0.1787302 0.11513378 -0.55038166 0.461375 -0.6606739 0.28825098 0.72700256 -0.20864354 0.3368989 0.54178184 -0.038143188 -0.24160317 -0.5246278 0.21330762 -0.27773565 -0.09942143 -0.20833184 0.8996192 0.30392346 0.03549799 -0.13841762 0.6567126 0.4947928 0.10320335 0.4730109 0.13628908 -0.17454058 0.112465605 0.88439655 0.4287507 0.28504747 -0.57617867 0.2576035 -0.0060171285
7153 -0.4251385 0.6292255 -0.033768155 -0.074130856 -0.09987631 -0.90906423 0.25144377 0.9664081 -0.2968125 -0.19762996 -0.3624342 -0.7459068 -0.28527308 0.08490848 0.018876467 -0.45410743 -0.028635958 -0.63982373 -0.0573659 -0.8162371 0.39695594 0.027864633 0.014024791 -0.16467115 -0.20313823 -0.20242281 -0.55623 -0.65297407 -0.638201 0.046011526 0.6157361 0.10839162 0.04885279 -0.115448125 -0.0062243324 0.5486344 -0.1699209 -0.5327229 -0.15024973 -1.1415714 0.049090248 -0.5048795 -0.073525004 0.05158117 0.36381087 -0.3900132 -0.43728563 -0.0147529375 0.23322894 0.40719825 0.18861598 -0.43822017 -0.18717697 0.03596929 -0.5005179 0.44510466 0.5051504 0.104435034 -0.57152885 0.005997197 0.22042222 0.16601567 -0.3581835 0.12264183 -0.78607327 0.4203725 0.18520491 0.13589363 -0.45650676 0.42561048 -0.53070813 0.18759789 0.69693327 -0.29334792 0.36465573 0.5952771 -0.03929574 -0.14305824 -0.453553 0.19596115 -0.22122076 -0.05260343 -0.19236505 0.88349676 0.32797584 0.11952414 -0.15559338 0.625379 0.5656566 0.23191406 0.46694398 0.13416034 -0.19422512 0.08215766 0.80205333 0.42761493 0.27844614 -0.6536456 0.25607604 -0.02961779
47 -0.19268847 0.35624242 0.14816964 0.2793628 0.07007758 -0.5638684 0.1251892 0.863943 -0.43963367 -0.26127395 -0.40949795 -0.6579969 -0.21025506 0.13119078 0.04448257 -0.2807332 -0.007579415 -0.5352676 -0.0039990516 -0.7470253 0.21261787 -0.038188234 -0.12297543 -0.27064377 -0.114370316 -0.086513974 -0.4259511 -0.19039686 -0.37413165 0.14935997 0.49937123 -0.107830375 -0.15342507 -0.1685648 0.0013674387 0.4925846 0.26782757 -0.56503683 -0.06844317 -0.9014982 0.038367502 -0.47296768 -0.18674101 0.112296246 0.13978177 -0.16536222 -0.2883939 0.18948355 0.02348556 0.18701087 0.062794276 -0.3359829 -0.21148457 0.2455154 -0.54127014 0.23596187 0.20306414 -0.0225209 -0.42183223 -0.03976002 0.14443241 0.2574627 -0.22324523 0.09305216 -0.45621625 0.2459906 0.24722081 0.16167773 -0.37348792 0.5057929 -0.40648237 0.36181152 0.41351888 -0.36779594 0.40134344 0.3167816 -0.10259474 -0.122996286 -0.12952352 0.09992502 -0.047646806 -0.08475914 -0.2147153 0.5789136 0.046877775 0.015789693 -0.28891686 0.48935312 0.3790405 0.15630975 0.34236026 0.2684832 -0.17714182 0.17190015 0.65498096 0.25225645 0.0031769932 -0.45029318 0.21956089 0.0037375442
457 -0.35494724 0.44636285 0.12262244 0.30763108 0.13543808 -0.8534047 0.25315112 1.0465025 -0.4086823 -0.31843406 -0.49435693 -0.8097025 -0.3840586 0.07900434 0.33704507 -0.26681894 0.06358677 -0.5721874 0.2912437 -0.842356 0.28247198 0.20379023 -0.03300428 -0.29488617 -0.11298989 -0.020859132 -0.612846 -0.12832932 -0.50393033 0.13889326 0.7165994 -0.19663917 -0.08787608 -0.20922859 -0.0880413 0.65710044 0.29918817 -0.6419951 -0.2456727 -0.9155884 0.113211654 -0.57254237 -0.14026642 0.16954124 0.35253918 -0.050072305 -0.2749756 -0.036775064 0.040797804 0.25817594 0.08743339 -0.36409682 -0.29029375 0.24610995 -0.5235172 0.52517587 0.35087788 0.13610499 -0.4425867 0.053750373 0.013831865 0.33283636 -0.30593297 0.16722625 -0.33997446 0.3888942 0.1326058 0.15208207 -0.37515557 0.6842852 -0.539379 0.40990233 0.5741198 -0.27754506 0.43384308 0.3646956 -0.21299538 -0.25455013 -0.24408738 0.10163853 -0.13491324 -0.044167932 -0.100741394 0.7292549 0.07722362 0.13125592 -0.31787103 0.5802247 0.5872166 0.27908695 0.43993977 0.11665186 -0.23081481 0.14551817 0.82247764 0.41089734 0.14577307 -0.52241546 0.31774288 0.027288001
608 -0.3649284 0.43895543 0.1289751 0.047379427 0.09678644 -0.7718411 0.27577722 0.9836517 -0.36062667 -0.24155964 -0.3949155 -0.8009924 -0.38393807 -0.0055801235 0.28776687 -0.31995156 0.086667106 -0.6573635 0.2882764 -0.8135739 0.34759423 0.23156022 0.015095024 -0.22782207 -0.157301 0.03891402 -0.62364006 -0.22478093 -0.5184795 0.048307907 0.72047925 -0.12991859 -0.020955564 -0.14706713 -0.107508406 0.60456365 0.25394654 -0.6365214 -0.388517 -0.90933716 0.053303443 -0.5057215 -0.10991127 0.14217556 0.368683 -0.14893997 -0.215145 -0.053456172 0.03422769 0.35137054 0.07572521 -0.35223314 -0.28067952 0.17934723 -0.48175448 0.509469 0.42027214 0.20055546 -0.3985078 -0.04263255 -0.014728979 0.3473677 -0.3036059 0.19035953 -0.4437583 0.3967167 0.0848471 0.11885162 -0.44572747 0.62089545 -0.575665 0.4764324 0.60878533 -0.18178557 0.43413576 0.32553414 -0.17531015 -0.28305733 -0.37837052 0.1389579 -0.21783024 -0.11901987 -0.19269232 0.80774075 0.07051811 0.10186841 -0.24163769 0.6308979 0.562897 0.31934053 0.4198512 0.09546256 -0.19842993 0.11639123 0.8351291 0.547706 0.22692846 -0.43182084 0.35172552 -0.03051053
5952 -0.4194735 0.58568764 -0.014342325 -0.098300345 -0.13812743 -0.9365456 0.24290267 0.96231616 -0.3161602 -0.19785383 -0.34154615 -0.7138407 -0.2859926 0.082610585 0.0010518816 -0.4075059 -0.0044813342 -0.61889225 -0.062412076 -0.79633886 0.37121052 0.005529347 0.010628535 -0.14003919 -0.22609265 -0.21590477 -0.5648125 -0.6772951 -0.6195396 0.06880932 0.60486513 0.14884953 0.018077534 -0.124389604 0.006867718 0.4911623 -0.22157402 -0.53445804 -0.09791044 -1.1305752 0.06054028 -0.4984293 -0.027032599 0.011920572 0.37783167 -0.3935208 -0.40699124 -0.008384528 0.25971898 0.348033 0.17495285 -0.3845748 -0.15164053 0.036617555 -0.39823467 0.43884957 0.5190967 0.13652135 -0.50737125 0.06810757 0.23213126 0.09567675 -0.35881272 0.14251858 -0.75212544 0.4186291 0.19725206 0.15591596 -0.4354717 0.42503318 -0.5276898 0.12775418 0.6864518 -0.3046053 0.3164161 0.60434407 -0.03913604 -0.11161718 -0.4148023 0.17460883 -0.15445103 -0.028859321 -0.19254278 0.8792897 0.358944 0.09383401 -0.14557113 0.59091645 0.5730975 0.20851265 0.45645025 0.08619344 -0.18501277 0.03464749 0.7469492 0.35955623 0.276717 -0.6046773 0.28644514 -0.04073624
150 -0.2558929 0.465069 0.12001366 0.25638017 0.053868774 -0.7526176 0.20154564 1.0231563 -0.45857742 -0.3008654 -0.48415363 -0.7754562 -0.29055035 0.12044793 0.08185132 -0.3182477 -0.009526544 -0.61232847 0.029310199 -0.8894607 0.2766609 0.013092201 -0.085889876 -0.33463043 -0.15876406 -0.11204015 -0.5548115 -0.28545165 -0.49078283 0.1618627 0.6153757 -0.097471885 -0.11686916 -0.16380535 -0.020914972 0.6074196 0.25004306 -0.62905264 -0.12637615 -1.0561501 0.04814035 -0.556475 -0.1804276 0.12724955 0.22620559 -0.20343582 -0.33626312 0.14285691 0.06107089 0.27202916 0.08088309 -0.40333265 -0.25816214 0.23214284 -0.5823529 0.33577076 0.29437304 0.011723354 -0.5019309 -0.026817868 0.1628501 0.27677488 -0.2599966 0.10422557 -0.5551823 0.33424926 0.25085554 0.14779896 -0.44116378 0.5709569 -0.5249567 0.3782606 0.5283112 -0.3713565 0.44358733 0.41051403 -0.13081117 -0.17278929 -0.23802944 0.12627049 -0.07509666 -0.06815049 -0.22181469 0.72873896 0.10685525 0.03259582 -0.30948675 0.60437804 0.4872211 0.19839782 0.38636073 0.2740362 -0.18869296 0.18184955 0.80280423 0.31784207 0.062403228 -0.5228985 0.2713784 -0.005140718
2762 -0.43359149 0.54270333 -0.087833285 -0.06433832 -0.12353314 -0.832841 0.295225 0.9026588 -0.3190826 -0.16783848 -0.37821448 -0.6672687 -0.34805566 -0.001953684 -0.017694741 -0.345264 -0.012634871 -0.6314554 0.046537984 -0.919493 0.43324426 0.016815068 0.17981191 -0.13140456 -0.20162156 -0.16492969 -0.6448643 -0.6363864 -0.5737285 0.08815743 0.6269837 0.18857478 0.12889434 -0.0406764 0.007447884 0.4756676 -0.24189763 -0.5547658 -0.24748811 -1.1167289 0.054473184 -0.50827444 -0.1027369 0.06290408 0.3680057 -0.29392958 -0.3619034 -0.03410869 0.24230036 0.4045228 0.13972288 -0.36993808 -0.212846 0.030714875 -0.41014472 0.3454509 0.5007631 0.08042541 -0.54384327 -0.02267043 0.19565172 0.0924594 -0.2872795 0.121042415 -0.7917548 0.3760241 0.2414713 0.14334469 -0.5262836 0.3946558 -0.5706231 0.19677252 0.6305116 -0.22819375 0.3208089 0.50575596 0.0036384226 -0.15955284 -0.4854133 0.20336786 -0.2482156 -0.07862623 -0.14848371 0.83616954 0.30749837 0.014521135 -0.12084939 0.6211053 0.443184 0.08168386 0.47297102 0.13722967 -0.1612216 0.0640263 0.8030778 0.3845129 0.2946372 -0.57028127 0.24280363 0.03826683
4226 -0.45000237 0.6472305 -0.026552813 -0.06737835 -0.13885365 -1.0042119 0.2538585 1.0469503 -0.3318299 -0.18540132 -0.3870145 -0.8159838 -0.34806713 0.052998025 0.005727571 -0.45462504 -0.03927712 -0.76342905 0.025881654 -0.91507375 0.4531662 0.06473094 0.09456581 -0.13737424 -0.23940621 -0.21732517 -0.71979016 -0.7089916 -0.71457404 0.07670208 0.69602877 0.12500286 0.088476345 -0.100062616 0.0073414636 0.54451275 -0.2338351 -0.58157337 -0.18796949 -1.2696953 0.048325505 -0.5722517 -0.11583039 0.055283096 0.39114285 -0.37185866 -0.45553854 -0.017654717 0.2596734 0.44650364 0.13897282 -0.41859305 -0.15735944 0.011376994 -0.41785103 0.45042866 0.59819824 0.123558134 -0.59282935 0.05050356 0.18981533 0.11412541 -0.36436653 0.13620806 -0.87719667 0.4334363 0.20429859 0.17819704 -0.55238277 0.4899425 -0.61411357 0.20758644 0.7537966 -0.29585087 0.35853466 0.6211832 -0.10427307 -0.17896 -0.5127574 0.1998163 -0.2635614 -0.071490794 -0.21146841 0.9597378 0.34898025 0.049685948 -0.15807232 0.6882606 0.6200101 0.17792207 0.48348618 0.1183717 -0.17635408 0.046454564 0.8833839 0.46965212 0.2992039 -0.59986204 0.29637817 -0.053347316
1270 -0.20571 0.58914566 -0.06567041 -0.16260456 -0.18546656 -0.81451666 0.40590572 0.868657 -0.21457836 -0.15442269 -0.27074373 -0.73067015 -0.283187 0.034411956 -0.058358096 -0.35542697 -0.031234322 -0.6779528 0.038565636 -0.79808664 0.49846336 0.16796952 0.33630732 -0.118069574 -0.19348775 -0.104516916 -0.6596636 -0.657356 -0.45792615 -0.028771639 0.5484616 0.1903691 0.3391097 0.07301692 -0.027040366 0.5248144 -0.12645206 -0.6425183 -0.44683716 -1.0341655 -0.12231811 -0.374433 -0.05167641 0.054333404 0.3082479 -0.28300014 -0.34386367 -0.07125754 0.10990884 0.53853685 0.16498224 -0.29058617 -0.39960927 -0.088079594 -0.36897677 0.2904505 0.55011827 0.08367549 -0.4327719 -0.07796375 0.11237835 0.10941755 -0.24033378 0.113094285 -0.88147366 0.35796368 -0.00061161217 0.03266129 -0.5686039 0.43454242 -0.63631207 0.23881967 0.6804421 -0.045787882 0.30041718 0.37054056 -0.008843219 -0.33116817 -0.66443783 0.27937865 -0.3571711 -0.1402963 -0.27805945 0.7610366 0.20502317 -0.012535461 -0.0709811 0.66103977 0.46601087 0.087433465 0.40099052 0.10850996 -0.14779449 0.0698563 0.82829404 0.37821054 0.29026708 -0.35874653 0.1812665 -0.17721774
32 -0.25272202 0.42100322 0.105082236 0.20716308 0.06274063 -0.6780792 0.16028744 0.96764684 -0.48054165 -0.2741053 -0.4469749 -0.75621045 -0.248767 0.13730513 0.037315916 -0.350377 -0.022080034 -0.6357891 -0.020693017 -0.8675421 0.2881618 -0.02128584 -0.091277175 -0.26460934 -0.13460037 -0.10905564 -0.49762475 -0.30484515 -0.4511448 0.13181007 0.543437 -0.0383676 -0.13161238 -0.14360504 0.013953488 0.5588369 0.21486996 -0.64185 -0.11381374 -1.0337975 0.018545752 -0.5310403 -0.18181053 0.12296193 0.20018974 -0.21284002 -0.35177484 0.19773363 0.07185167 0.24562213 0.08352048 -0.3852986 -0.23552017 0.23001906 -0.5792568 0.27995822 0.2990196 0.0083018355 -0.462797 -0.035170313 0.17911787 0.2403234 -0.24926534 0.111377686 -0.58626217 0.28531513 0.23877658 0.16354764 -0.45858765 0.5505551 -0.4882432 0.38261446 0.50758755 -0.3767815 0.41985855 0.38595012 -0.09779953 -0.1524333 -0.22572611 0.13144642 -0.104843736 -0.09165365 -0.2705894 0.69002944 0.10654296 0.0328092 -0.29270822 0.58921933 0.45757267 0.15871951 0.39715052 0.29839516 -0.19196177 0.18518652 0.7722644 0.32099143 0.070345476 -0.54510146 0.24025929 -0.011045279
3578 -0.41223708 0.577779 -0.0369551 -0.057539944 -0.13340981 -0.88979405 0.26654583 0.9430466 -0.30334368 -0.17864639 -0.36449957 -0.7358352 -0.32300386 0.015278617 0.00043000438 -0.4071751 -0.04070771 -0.6738302 0.03801463 -0.8722346 0.4426372 0.038673375 0.11461989 -0.13653038 -0.20062561 -0.16467048 -0.64632004 -0.62592405 -0.61997 0.050134063 0.6395109 0.13875279 0.12203654 -0.07817602 0.014272267 0.48943675 -0.17684244 -0.5575961 -0.23504798 -1.1227355 0.033531953 -0.5216863 -0.10199624 0.06667664 0.34931916 -0.3324226 -0.37175116 -0.019047828 0.21786427 0.41598776 0.124525905 -0.370651 -0.19035672 0.038729068 -0.4196063 0.38482705 0.5264749 0.09357598 -0.54725087 0.023658412 0.1858118 0.11438904 -0.30918667 0.12629884 -0.787547 0.38475823 0.18959314 0.15263647 -0.5077068 0.42820507 -0.5754977 0.20747721 0.6831954 -0.23388584 0.34701866 0.54231775 -0.07529109 -0.16257955 -0.48193526 0.19697052 -0.2564406 -0.08659218 -0.19776444 0.86190987 0.2835271 0.037406944 -0.13781571 0.63181907 0.52142394 0.13152695 0.44606525 0.13527057 -0.16298194 0.061160915 0.82467693 0.42536148 0.25903606 -0.5605168 0.25076416 -0.029058002
364 -0.32581148 0.42473638 0.13110493 0.32784516 0.11896874 -0.84582925 0.24061275 1.0035783 -0.38828397 -0.3186903 -0.48411143 -0.79628724 -0.35580337 0.093458384 0.29206055 -0.26133746 0.050385624 -0.54680383 0.24124709 -0.8342146 0.2640666 0.16984448 -0.016097503 -0.3470664 -0.11524503 -0.05560692 -0.57558995 -0.124829 -0.5049314 0.16411085 0.6886836 -0.19215164 -0.0638873 -0.19843557 -0.09516536 0.6415686 0.29059857 -0.61770034 -0.19174445 -0.91747636 0.09280209 -0.561004 -0.12609915 0.16963449 0.33469808 -0.041787338 -0.28808677 0.00727607 0.034385987 0.24423413 0.07701503 -0.3432525 -0.26372272 0.23374058 -0.52990645 0.47182134 0.3358171 0.12347424 -0.43315583 0.058720697 0.06134693 0.31826 -0.28689268 0.13339251 -0.35487175 0.36030656 0.1539996 0.14491607 -0.34154564 0.6614356 -0.5104389 0.3936556 0.5489571 -0.27119932 0.44586328 0.36749566 -0.17524779 -0.24260901 -0.22913694 0.10145513 -0.09062982 -0.051052313 -0.1105406 0.69458145 0.08445598 0.10658035 -0.3413407 0.55157024 0.5557881 0.26945743 0.4250983 0.1636893 -0.22027878 0.14036235 0.8054636 0.36335567 0.124362394 -0.50418514 0.29798964 -0.002307578
4306 -0.44778135 0.63624024 -0.029726243 -0.076170206 -0.15478134 -1.0272326 0.23497601 1.0886275 -0.33162734 -0.20816316 -0.3837309 -0.8070643 -0.3559127 0.053868 0.019090569 -0.44447586 -0.05172983 -0.7773179 0.033131786 -0.94119805 0.45785972 0.050778158 0.09070329 -0.15207757 -0.23951678 -0.2195656 -0.71247286 -0.71299034 -0.7137337 0.096875414 0.6891719 0.1263335 0.09483873 -0.10817557 0.023174582 0.5586182 -0.25607726 -0.61123407 -0.18065338 -1.2882036 0.06675225 -0.5848548 -0.10472259 0.05116442 0.4139515 -0.39984494 -0.45154434 -0.017821431 0.26067576 0.44798532 0.13637647 -0.42087334 -0.1606261 0.029757647 -0.40905434 0.4560084 0.5958565 0.13318369 -0.6010041 0.057664648 0.19570452 0.12204231 -0.36846322 0.14983603 -0.884664 0.44766232 0.230898 0.19627818 -0.56390786 0.5073477 -0.6142019 0.19002166 0.76403415 -0.30101216 0.3656233 0.63645595 -0.09585268 -0.17285623 -0.5166533 0.20125988 -0.24025655 -0.0672222 -0.23307474 0.98187035 0.35798302 0.069009416 -0.15443389 0.69902444 0.627141 0.19620791 0.47768208 0.11199068 -0.18203449 0.05284377 0.8825259 0.45726645 0.304583 -0.60516083 0.33180946 -0.06058825
588 -0.34429264 0.39124534 0.11445738 0.17498516 0.14100589 -0.74180245 0.25392875 0.974027 -0.37818468 -0.26656923 -0.41560602 -0.7374852 -0.3996924 0.022335079 0.34265617 -0.27724046 0.121205404 -0.5918383 0.30998528 -0.7427052 0.27163866 0.2324308 -0.023242988 -0.2227832 -0.110294335 0.020861762 -0.5766398 -0.13518843 -0.49718344 0.08773455 0.7064402 -0.20253108 -0.07455702 -0.19648814 -0.10978341 0.6247826 0.27185747 -0.60665834 -0.31382862 -0.8443347 0.075403236 -0.5114948 -0.10906033 0.18393043 0.38360116 -0.04957962 -0.21233489 -0.07797276 0.034197636 0.27291957 0.06296807 -0.3204259 -0.27744913 0.18969294 -0.46279866 0.52039814 0.34456518 0.1730256 -0.40005538 0.018168967 -0.045886423 0.3519857 -0.30773205 0.18174359 -0.30466688 0.3673598 0.08170402 0.14215213 -0.37027138 0.61909676 -0.49765754 0.43722194 0.5497121 -0.1956103 0.4299342 0.3021976 -0.21504802 -0.2690551 -0.26269132 0.078919195 -0.1499238 -0.09292299 -0.12091273 0.7186504 0.04770252 0.14075212 -0.26324853 0.55464506 0.5803092 0.320121 0.40411535 0.056879718 -0.19300927 0.11341384 0.762286 0.49556494 0.15743276 -0.46806708 0.35629258 -0.0084618945
58559 -0.3969651 0.55667055 -0.052754603 -0.07268474 -0.12369055 -0.86257404 0.2394033 0.9382288 -0.26970038 -0.19877277 -0.37551185 -0.76151305 -0.25800163 0.06775957 -0.0068691177 -0.4344434 -0.054723784 -0.63222456 -0.015906788 -0.7962675 0.46003518 0.079372965 0.05752741 -0.16528977 -0.20360315 -0.17519082 -0.5609434 -0.622251 -0.5793501 0.083031684 0.6165176 0.12237635 0.090438604 -0.08281646 -0.0067708036 0.55526036 -0.12329593 -0.5797315 -0.2066243 -1.0810478 0.061924845 -0.48162514 -0.082636856 0.022821518 0.3583477 -0.2877739 -0.3556481 -0.024298096 0.21285331 0.38549426 0.14360228 -0.41659468 -0.20033816 0.06544234 -0.43681255 0.41076967 0.48956785 0.095823266 -0.52379674 -0.028768795 0.19459309 0.19179831 -0.32962304 0.10813701 -0.75049853 0.4048385 0.14671451 0.114481345 -0.4851664 0.45210755 -0.55697227 0.21886073 0.67484564 -0.26701003 0.34993908 0.55979854 -0.06720073 -0.20283954 -0.48064005 0.20548055 -0.2573301 -0.077268705 -0.19900638 0.876792 0.3168766 0.0805941 -0.16471905 0.66069764 0.56180704 0.16940245 0.44939658 0.10044663 -0.15331523 0.0931633 0.7709595 0.46075195 0.21646728 -0.60779893 0.26359004 0.018897954
1214 -0.058345467 0.71680856 0.051032044 -0.3725575 -0.2170937 -0.8292383 0.5146053 0.8499711 -0.24404205 -0.17030784 -0.09171313 -0.8111534 -0.29708046 -0.020847239 -0.04737348 -0.39490554 -0.14880744 -0.77767164 0.052253712 -0.731038 0.5877908 0.3135039 0.5731541 -0.12522791 -0.24078766 -0.012696003 -0.73059916 -0.6939114 -0.4161974 -0.16738209 0.45369342 0.2585062 0.62259716 0.22126934 -0.030848874 0.56287616 -0.02752357 -0.6322498 -0.7196653 -0.9501693 -0.3316211 -0.2690554 -0.01960272 0.17070504 0.29297313 -0.31366408 -0.27399248 -0.057840336 0.037133884 0.69232136 0.20460345 -0.15681745 -0.54150885 -0.2885797 -0.2587092 0.17018795 0.6031919 0.16611786 -0.34369534 -0.24961141 0.010090092 0.120766915 -0.10102035 0.12658036 -1.0521046 0.3369249 -0.08726873 -0.026551547 -0.7342093 0.43245673 -0.74112 0.36986846 0.7701493 0.20290008 0.25168914 0.28835246 0.042838424 -0.49726465 -0.87490404 0.5044376 -0.5068038 -0.22142959 -0.36063525 0.6932409 0.20846437 -0.12821028 0.051930986 0.7953914 0.47278893 0.12675463 0.38692084 0.2090351 -0.050057296 0.06419189 0.91088015 0.45610026 0.45344096 -0.0069663213 0.069936246 -0.40988764
1197 -0.09267239 0.6764026 0.08897273 -0.4052027 -0.13350213 -0.7374706 0.5201692 0.7605204 -0.19073798 -0.13375446 -0.06821424 -0.80222726 -0.20492768 -0.0815078 -0.014715958 -0.31742528 -0.15867722 -0.6873193 0.080631286 -0.69909775 0.49554184 0.27087188 0.49034053 -0.11259386 -0.21465576 0.062298294 -0.62518483 -0.604135 -0.39521313 -0.16298679 0.39548695 0.22735555 0.57730204 0.21036394 -0.090034865 0.5388811 0.05660894 -0.49223632 -0.68952 -0.8208644 -0.29874918 -0.22458664 -0.053873833 0.1596244 0.2713723 -0.32716838 -0.17357773 -0.023519976 -0.03066768 0.6510663 0.12822688 -0.13889721 -0.471668 -0.23695244 -0.22199257 0.13097134 0.52970505 0.18776704 -0.2689901 -0.25404114 0.0037224053 0.105392694 -0.061218318 0.12163346 -0.91233665 0.29314795 -0.08330604 -0.00836117 -0.66546524 0.385148 -0.67694557 0.42223263 0.6899175 0.2513914 0.2619298 0.2179472 0.018466376 -0.48993248 -0.7550104 0.5096439 -0.45735502 -0.26633933 -0.31324416 0.5894009 0.17031674 -0.15890895 0.086239494 0.71616155 0.39880642 0.11254586 0.31114018 0.22478655 -0.0044159424 0.0932468 0.88519627 0.4748118 0.46988657 0.03161999 0.07611858 -0.3529694
1193 -0.16458492 0.6070924 0.10135684 -0.3230999 -0.090501994 -0.74991083 0.4651994 0.79660606 -0.22329438 -0.16203436 -0.14318563 -0.7888276 -0.24117437 -0.069357686 0.030907527 -0.31808367 -0.12594174 -0.67083013 0.103175074 -0.7302759 0.44871685 0.2601061 0.4029271 -0.1478011 -0.18429086 0.05329431 -0.61644673 -0.5430116 -0.43032354 -0.10073747 0.46233952 0.16931778 0.4456208 0.14245147 -0.0965561 0.53601 0.053877614 -0.5389663 -0.6000455 -0.856485 -0.2107327 -0.29827613 -0.08513727 0.15545507 0.28594267 -0.30450773 -0.17285427 -0.033795282 -0.024099095 0.57715154 0.11671478 -0.20222637 -0.41298562 -0.13476844 -0.29479632 0.20229107 0.4950007 0.18847848 -0.31220797 -0.20991153 0.03259101 0.15485314 -0.09900997 0.13163875 -0.83789134 0.3281838 -0.045898058 0.0019553683 -0.622074 0.42247638 -0.666107 0.43709686 0.6791027 0.13721935 0.29003048 0.26024175 -0.028102936 -0.4292239 -0.6896078 0.43567526 -0.38505757 -0.23127256 -0.29453644 0.6438782 0.15671077 -0.09929562 0.035202354 0.6818058 0.4067868 0.1216201 0.3391364 0.20676462 -0.04501833 0.09887905 0.87586457 0.47979176 0.4224964 -0.08681171 0.11834374 -0.27823213
79132 -0.44370684 0.6118721 -0.049125053 -0.049759477 -0.10566488 -0.9066242 0.28553978 1.0176681 -0.31855282 -0.22250867 -0.41818762 -0.83709633 -0.31492928 0.06580402 -0.0041963994 -0.47236037 -0.07836547 -0.6966539 0.015447181 -0.8995801 0.5074417 0.070840634 0.083824754 -0.19042449 -0.20279327 -0.16511087 -0.619605 -0.66956854 -0.60377294 0.10168128 0.7136781 0.13647564 0.09908012 -0.079617806 0.012011933 0.6218179 -0.11505636 -0.6309951 -0.2400155 -1.2188452 0.05669315 -0.5487515 -0.09223933 0.046458844 0.3635023 -0.33444387 -0.38849923 -0.030625599 0.22536169 0.43890077 0.1768183 -0.43711808 -0.22306266 0.078221746 -0.50733256 0.4605488 0.52652717 0.1209417 -0.5980668 -0.025298096 0.21074267 0.22121641 -0.36958522 0.10823101 -0.84297436 0.41162187 0.1673967 0.1379953 -0.5466015 0.5184592 -0.6360944 0.2568907 0.7263356 -0.26253998 0.38299486 0.5808368 -0.07483675 -0.21340288 -0.503386 0.21766998 -0.28789204 -0.10613516 -0.19984354 0.9381554 0.31907088 0.06181588 -0.18832779 0.7000618 0.61102676 0.1745048 0.4801936 0.10534311 -0.18697895 0.123886906 0.8405366 0.50673765 0.24463016 -0.6654452 0.27987134 0.005724973
1221 -0.10833727 0.6676532 0.003767205 -0.30721155 -0.19379278 -0.78740275 0.44550022 0.8166035 -0.25087488 -0.1619562 -0.12550706 -0.7737138 -0.30388522 -0.0037513853 -0.03807961 -0.38995862 -0.1041788 -0.7370208 0.044091746 -0.7066307 0.5442615 0.27324128 0.48389027 -0.106721245 -0.23287432 -0.027323412 -0.7020859 -0.6670929 -0.3965777 -0.1410653 0.44887355 0.21058187 0.5169861 0.17627576 -0.028909374 0.54195744 -0.04875813 -0.5995728 -0.61447775 -0.9336363 -0.2571581 -0.2971608 -0.009189651 0.15298983 0.27760795 -0.28612348 -0.27583057 -0.063670345 0.04719711 0.6143841 0.18918708 -0.17552182 -0.45548254 -0.20517083 -0.27439412 0.17565228 0.5712941 0.1231331 -0.35854268 -0.20281443 0.04609025 0.1167525 -0.13771772 0.14082712 -0.9518572 0.32227218 -0.048964188 -0.00089442846 -0.66408086 0.43184936 -0.6828291 0.30920845 0.7159131 0.12357279 0.24707234 0.3128316 0.01671104 -0.40405044 -0.77733606 0.3972544 -0.44099304 -0.18250592 -0.31136048 0.67122674 0.21718082 -0.07126686 0.010788447 0.74247915 0.44264662 0.10910128 0.38227886 0.16636612 -0.0807352 0.058334593 0.85712564 0.42171317 0.36957228 -0.09556734 0.09445766 -0.31939292
1089 -0.29172286 0.6101884 0.07296708 -0.26469022 -0.04937245 -0.84277225 0.4180187 0.8862842 -0.23965299 -0.18367483 -0.24912232 -0.8317121 -0.28334168 -0.03849341 0.06918528 -0.37382463 -0.1193866 -0.71919245 0.13459666 -0.8092354 0.46602884 0.22041576 0.27689996 -0.16435684 -0.16935718 0.01874695 -0.63346 -0.51587355 -0.515165 -0.04491478 0.601528 0.11587763 0.2794914 0.061313055 -0.07192605 0.5697688 0.051795706 -0.582452 -0.5066475 -0.97629386 -0.13780898 -0.39601997 -0.12667522 0.09774493 0.31046712 -0.31863207 -0.21567148 -0.008876509 0.017665468 0.5409654 0.113087535 -0.27504694 -0.36839047 -0.02727862 -0.34764633 0.32545105 0.51959056 0.19077703 -0.3996138 -0.16073628 0.05121322 0.20687738 -0.19550851 0.13386475 -0.812411 0.37925288 0.01751071 0.041743957 -0.580749 0.498678 -0.67216283 0.45011806 0.72897106 0.020794766 0.3317424 0.31906256 -0.06436808 -0.3887352 -0.61844635 0.36039695 -0.35933214 -0.19825685 -0.28467497 0.77883506 0.18639745 -0.054158133 -0.051801708 0.71814907 0.47778463 0.15934406 0.40890777 0.1903685 -0.08627307 0.104573585 0.9019451 0.5235327 0.3760408 -0.2639811 0.18921493 -0.19829746
7361 -0.47980562 0.70668095 -0.032832436 -0.09980854 -0.09964928 -1.0222465 0.30310497 1.0957224 -0.34522942 -0.234021 -0.42228985 -0.8614438 -0.33367318 0.08191156 0.022172367 -0.49926108 -0.02552674 -0.7356525 -0.030224822 -0.950262 0.4605939 0.0609388 0.050216727 -0.20690656 -0.2102075 -0.2000894 -0.64309895 -0.71600854 -0.701142 0.04900663 0.71123374 0.13346268 0.07588789 -0.120778106 -0.013642924 0.6357972 -0.15545532 -0.64070576 -0.22174658 -1.2936989 0.034488812 -0.5682366 -0.07774694 0.04782382 0.39614725 -0.40394774 -0.4577535 -0.013497104 0.22605483 0.47121465 0.19766246 -0.46653134 -0.25048798 0.049115412 -0.5568445 0.47412732 0.577436 0.118684664 -0.63225013 0.0017339276 0.23731884 0.19594368 -0.392423 0.14438497 -0.8856094 0.44353384 0.18571974 0.1321044 -0.55803984 0.52191466 -0.6209662 0.254226 0.7979809 -0.29128903 0.41446263 0.62464744 -0.052310415 -0.20117359 -0.53155684 0.22344033 -0.24921109 -0.06868833 -0.23478281 0.9889924 0.35718194 0.10279467 -0.19992077 0.74108064 0.62264293 0.23757327 0.54372895 0.15339626 -0.20726722 0.09608134 0.9052144 0.5009697 0.30934283 -0.71961653 0.3114701 -0.050251633
1291 -0.2329599 0.5508663 -0.06401236 -0.15013146 -0.15403083 -0.7912098 0.3630492 0.83776313 -0.2023743 -0.14898497 -0.26225954 -0.6797457 -0.30182028 0.008235447 -0.04887681 -0.34764528 -0.034978587 -0.6268716 0.025246304 -0.7580113 0.44365618 0.13061728 0.27782142 -0.14102606 -0.18681598 -0.10680379 -0.6012233 -0.624125 -0.45099932 -0.020497192 0.52927864 0.15762268 0.2687258 0.05535003 -0.0016800765 0.48521203 -0.1349988 -0.6064997 -0.36438558 -0.9965652 -0.067789055 -0.38980782 -0.05199298 0.038292233 0.29684365 -0.27394757 -0.34576014 -0.03747715 0.12056564 0.4878542 0.16488633 -0.28461784 -0.33569092 -0.05200119 -0.3795114 0.31089985 0.52210814 0.077022634 -0.4069467 -0.058016166 0.12279174 0.11469602 -0.23779267 0.10976775 -0.79536664 0.36488542 0.033915494 0.052404676 -0.54028404 0.40349293 -0.6068761 0.23075908 0.63154393 -0.08133403 0.29762027 0.37829652 -0.010370279 -0.29562658 -0.58094704 0.23471396 -0.32545957 -0.10529758 -0.25535765 0.7364121 0.21889704 0.0052865357 -0.08662207 0.6029653 0.43699452 0.08596345 0.37617216 0.09100075 -0.14032757 0.0702562 0.7838029 0.35886142 0.26686692 -0.37954187 0.16557713 -0.15324569
2329 -0.34492922 0.4608027 -0.064965494 -0.067357436 -0.1020637 -0.72404283 0.26073673 0.78803444 -0.24701399 -0.17627671 -0.28908798 -0.63290834 -0.2923957 0.014736692 -0.013351757 -0.2905359 -0.037353363 -0.55086696 0.03476256 -0.7806612 0.3576119 0.045011494 0.1408582 -0.12073397 -0.1633515 -0.1261125 -0.54124266 -0.5530368 -0.47038373 0.04366615 0.5382003 0.14455064 0.13851699 -0.028983988 -0.008311506 0.4227111 -0.15754111 -0.521013 -0.23172222 -0.9512281 0.02539682 -0.4221487 -0.10223467 0.06430055 0.30441612 -0.26680514 -0.30941066 -0.010430384 0.16097826 0.36572853 0.1267027 -0.31503597 -0.20402557 0.024152255 -0.3473423 0.30832383 0.44558662 0.06090393 -0.4183702 -0.016094096 0.14519621 0.10230214 -0.2354835 0.115390606 -0.69747674 0.3277466 0.17322996 0.11517342 -0.43178383 0.351135 -0.5028766 0.19182529 0.568694 -0.15871659 0.26888365 0.41910052 -0.0139982235 -0.18614024 -0.4259621 0.16729458 -0.23443805 -0.05990413 -0.14388259 0.70985955 0.25874752 0.032642405 -0.09163024 0.5367921 0.3941355 0.08497971 0.39774024 0.1255611 -0.144597 0.09250347 0.72142 0.3570712 0.23148254 -0.48078656 0.19884521 0.014509073
1704 -0.3531464 0.54151183 -0.029308224 -0.043207847 -0.14792737 -0.7765764 0.3234724 0.853855 -0.2722639 -0.19981515 -0.33395097 -0.7113541 -0.31097627 -0.012611714 -0.014179976 -0.3319614 -0.04296406 -0.62262213 0.027372593 -0.8031485 0.37212998 0.13009536 0.13604696 -0.13646017 -0.16053419 -0.10689318 -0.5902287 -0.594188 -0.4991697 0.025391394 0.55766165 0.12202041 0.14276606 -0.0072765932 -0.026431095 0.527026 -0.12212248 -0.60747564 -0.25421423 -1.0582352 0.019605726 -0.45752084 -0.110467084 0.030201623 0.3244213 -0.28765675 -0.35499173 -0.034809444 0.15800212 0.40425256 0.12828353 -0.33822736 -0.25952616 -0.0015446272 -0.4094862 0.35701048 0.45147645 0.07976148 -0.42177764 -0.015046416 0.1663662 0.16056967 -0.2579519 0.12451749 -0.76076555 0.36935836 0.13258305 0.10063398 -0.47044215 0.40798208 -0.5774764 0.26914257 0.6368249 -0.14511018 0.31925896 0.47615087 -0.074204795 -0.25260812 -0.46647397 0.19212824 -0.2160247 -0.121578686 -0.21038057 0.8125508 0.2501169 0.03013331 -0.12508237 0.5664036 0.41798475 0.087959394 0.41635886 0.14349453 -0.122957036 0.09187219 0.8114107 0.38928312 0.24512194 -0.498375 0.19786878 -0.05047357
1213 -0.023133853 0.6564915 0.044946924 -0.3676145 -0.16649732 -0.72082084 0.465589 0.75012666 -0.20467404 -0.13247973 -0.06291408 -0.7129232 -0.24197128 -0.020499181 -0.02331963 -0.3542992 -0.1304836 -0.69282156 0.055393647 -0.6263993 0.5260844 0.2994511 0.53790426 -0.08775664 -0.2088072 -0.0049862945 -0.65798753 -0.60775185 -0.34763724 -0.16515996 0.38720158 0.22399248 0.5984865 0.23081611 -0.041178055 0.51722527 0.003056426 -0.5417261 -0.6747727 -0.7926296 -0.3186396 -0.20452558 0.0017033982 0.16873834 0.23447467 -0.26113307 -0.23199572 -0.04834854 -0.0033165463 0.62292516 0.18005235 -0.14079693 -0.4942493 -0.28085005 -0.21667203 0.12745279 0.5360197 0.1581442 -0.2780348 -0.24328768 0.009939984 0.09016303 -0.061980434 0.1311861 -0.9317148 0.28674653 -0.08643674 -0.030701369 -0.6670897 0.38892323 -0.6586513 0.34129837 0.6760694 0.21415378 0.22066373 0.22102205 0.041450612 -0.45220113 -0.7890125 0.46514186 -0.46243873 -0.21165681 -0.3255448 0.5848355 0.18373922 -0.11483811 0.07070422 0.7084616 0.40104547 0.09698875 0.33882892 0.18188246 -0.045182496 0.049905095 0.8012684 0.39941725 0.4150759 0.03580166 0.04456018 -0.3873863
590 -0.3246102 0.3515973 0.09672591 0.13629374 0.14324425 -0.6332501 0.21250206 0.853439 -0.33085653 -0.2033647 -0.3628305 -0.6690929 -0.33769822 0.00044886325 0.31057897 -0.2600815 0.11894885 -0.5353823 0.28730178 -0.66290236 0.2453973 0.21610105 -0.023461178 -0.19510707 -0.10508682 0.020372571 -0.5333248 -0.11961129 -0.45353588 0.050149936 0.6356471 -0.1739948 -0.066183284 -0.16372846 -0.09854051 0.54589397 0.2525803 -0.55178446 -0.29646063 -0.7471533 0.059468977 -0.4365868 -0.10225826 0.16242735 0.33395043 -0.03624055 -0.17309134 -0.0719206 0.04027714 0.25287697 0.05937957 -0.29596668 -0.2294942 0.18069965 -0.39892885 0.4644897 0.31768322 0.17685336 -0.35821873 0.011170026 -0.045713797 0.32686037 -0.28333217 0.16026893 -0.2579164 0.32437655 0.05039763 0.119191706 -0.336764 0.54223293 -0.44690153 0.40158316 0.516756 -0.16505474 0.36552012 0.25836092 -0.18327329 -0.25030264 -0.24424824 0.070532456 -0.16131622 -0.081107244 -0.13425724 0.6476815 0.02152574 0.11980567 -0.23253755 0.5027658 0.5181762 0.29995525 0.3691588 0.059025645 -0.18645576 0.11557555 0.6893984 0.46100417 0.14753714 -0.38673013 0.31840846 -0.02030339
1136 -0.26390466 0.67568785 0.08034504 -0.31664336 -0.08519343 -0.86863226 0.46407887 0.9159633 -0.2678837 -0.17636 -0.22549453 -0.8869356 -0.25757214 -0.057313733 0.025994638 -0.38419825 -0.13762467 -0.7586679 0.103137895 -0.84566677 0.50557953 0.22821738 0.3640528 -0.1772179 -0.19910853 0.0015396484 -0.6699579 -0.6218773 -0.51456434 -0.08060245 0.56626606 0.18541554 0.38995847 0.11453388 -0.08379841 0.6021349 0.01067138 -0.6016594 -0.5741662 -1.0306845 -0.17010722 -0.39204398 -0.10818926 0.13367979 0.31881815 -0.35090658 -0.23733917 -0.027239176 0.003971326 0.59645754 0.13526942 -0.26735553 -0.4145296 -0.08410767 -0.3512785 0.27100226 0.56505746 0.19991076 -0.41277736 -0.18029313 0.08008259 0.17538664 -0.16808729 0.1322045 -0.902355 0.38501865 0.013478122 0.025900174 -0.64827967 0.4777651 -0.72923917 0.4520424 0.7558991 0.06528322 0.34174362 0.33616468 -0.027437609 -0.44200423 -0.71132827 0.42851037 -0.39714438 -0.23439457 -0.30582553 0.77139884 0.20102607 -0.08121066 -0.0077952603 0.7634651 0.4897247 0.14675747 0.39799932 0.22549845 -0.08777659 0.12562506 0.96770936 0.53550607 0.42532995 -0.22532864 0.18343095 -0.2446284
1036 -0.25308302 0.5054982 0.07754677 -0.17684759 -0.016315525 -0.70918965 0.33239767 0.7708854 -0.22699021 -0.15885039 -0.22798814 -0.71206516 -0.23801802 -0.015559859 0.09630615 -0.30196807 -0.07323144 -0.5930372 0.13231766 -0.71279854 0.38592425 0.17699772 0.19556181 -0.14593785 -0.1543273 0.010351494 -0.54675376 -0.39830697 -0.4401462 -0.036593422 0.53084487 0.070110306 0.21072783 0.0287635 -0.06935269 0.4791598 0.07305909 -0.5073818 -0.4210979 -0.83339745 -0.08861047 -0.3599355 -0.110184155 0.08714493 0.2762666 -0.24053225 -0.16640003 -0.0052399854 -0.0010238546 0.4416594 0.07969135 -0.24938378 -0.3194768 0.004527304 -0.31127802 0.2992794 0.4220491 0.16437802 -0.34139472 -0.12982751 0.04814129 0.20246433 -0.17650914 0.13623384 -0.635887 0.32199702 0.036113407 0.047572155 -0.4811846 0.45247376 -0.5666975 0.378466 0.5960314 -0.0019732444 0.29549098 0.2876663 -0.07395399 -0.32322425 -0.5124466 0.26906982 -0.26442733 -0.17022644 -0.2313663 0.67353845 0.12716633 -0.02212527 -0.066197164 0.585556 0.42749164 0.15591222 0.34492117 0.14007448 -0.11230419 0.11481225 0.7614433 0.45331267 0.29542533 -0.23911396 0.18276294 -0.15047939
1265 -0.22672929 0.5547312 -0.04881051 -0.13989015 -0.16944385 -0.8010025 0.35377693 0.8641042 -0.21595024 -0.16373257 -0.27619526 -0.69192696 -0.30379477 0.02521395 -0.024148207 -0.3610467 -0.045108136 -0.6551577 0.02410603 -0.75792384 0.46212012 0.14883259 0.2936919 -0.1416418 -0.19424367 -0.10208072 -0.63529515 -0.6337132 -0.44729227 -0.02441721 0.51614535 0.16795613 0.26685607 0.048954383 -0.0133527545 0.49712425 -0.14392921 -0.6164085 -0.4025595 -0.9965741 -0.086144544 -0.39051774 -0.055973582 0.05493137 0.30999953 -0.2643673 -0.33323467 -0.05278303 0.121308304 0.49431214 0.18443772 -0.29518142 -0.35856548 -0.06048382 -0.37495595 0.2928385 0.5189753 0.06634388 -0.41781315 -0.06470241 0.11347336 0.12033195 -0.23503526 0.097101755 -0.7952921 0.36214703 0.03008702 0.0530808 -0.54466206 0.41928095 -0.6012944 0.22267808 0.6340379 -0.08537667 0.2806846 0.38779056 -0.005824643 -0.30316556 -0.59186774 0.24221136 -0.32774428 -0.103724204 -0.25948152 0.72428846 0.2240078 0.000464863 -0.08853247 0.63987035 0.45269817 0.110906854 0.4038712 0.08190161 -0.15858723 0.0631071 0.796454 0.38183725 0.27208912 -0.3606427 0.16339913 -0.17008433
4973 -0.38915044 0.53767693 -0.022760501 -0.07126454 -0.14403091 -0.8985965 0.20000942 0.949334 -0.30808258 -0.15718634 -0.3208229 -0.6816779 -0.28102487 0.07648216 -0.00044827117 -0.3925457 -0.023333324 -0.662456 0.00037278506 -0.77354693 0.39316252 0.022292487 0.03268387 -0.11408585 -0.22451264 -0.2104685 -0.5843205 -0.6437143 -0.61711305 0.094060384 0.58891124 0.14358892 0.03996066 -0.11817961 0.008655078 0.4731983 -0.25732946 -0.4743088 -0.11458192 -1.1190192 0.08344405 -0.4840286 -0.053475376 0.039457828 0.3343478 -0.3468484 -0.3997177 -2.1704791e-05 0.24190271 0.33792034 0.1207017 -0.359749 -0.10910307 -0.0040433537 -0.31012294 0.402166 0.5024989 0.14333494 -0.48863354 0.076641954 0.20280728 0.05983214 -0.31385618 0.11902179 -0.7568508 0.3774613 0.20715168 0.18640423 -0.44905186 0.4047889 -0.51368034 0.122953504 0.63229835 -0.2601907 0.31751457 0.5688455 -0.067855015 -0.12109 -0.41578412 0.1696144 -0.15653422 -0.013096609 -0.19677873 0.820414 0.30193487 0.05304701 -0.11076391 0.577616 0.5573043 0.17640243 0.42929885 0.077138595 -0.15352567 0.046244398 0.7265625 0.34835848 0.24221395 -0.5131947 0.29704005 -0.040593714
6377 -0.38325724 0.5814978 -0.0069801253 -0.08106897 -0.09253536 -0.88100594 0.24324994 0.93232256 -0.31443217 -0.20684794 -0.3425112 -0.7075387 -0.29443932 0.083528295 0.035558242 -0.40187028 -0.025002204 -0.60773414 -0.04805736 -0.7940227 0.38618284 0.015327231 0.043061398 -0.16615261 -0.1997573 -0.18980753 -0.5689844 -0.61370206 -0.5738842 0.06876142 0.58107764 0.097884916 0.043172654 -0.12590036 0.008070867 0.5251064 -0.16926727 -0.52904904 -0.13909344 -1.0974987 0.04864759 -0.49473274 -0.04755416 0.048786897 0.36374432 -0.37043616 -0.38970605 -0.011537736 0.21548516 0.38192227 0.17335278 -0.3878025 -0.19431348 0.058218054 -0.4544016 0.41910565 0.49686962 0.111842014 -0.50094336 0.015546932 0.20565881 0.14750978 -0.35163146 0.1436621 -0.7358595 0.4125238 0.18547173 0.15248427 -0.4290323 0.4265832 -0.53596765 0.17626096 0.6687698 -0.2791554 0.32334262 0.5433477 -0.055930797 -0.1338005 -0.40525228 0.19174752 -0.20242459 -0.052268848 -0.18689142 0.8579076 0.3255672 0.10461339 -0.16462918 0.5849822 0.54759985 0.20847538 0.4377959 0.10969479 -0.18398234 0.04097916 0.7653872 0.4058754 0.25896823 -0.6016075 0.24364874 -0.031148024
1240 -0.11518095 0.56248397 -0.02247876 -0.2072431 -0.17734216 -0.70810366 0.39113876 0.76172704 -0.21618474 -0.1373794 -0.17602794 -0.67331326 -0.25121245 -0.001057986 -0.046020128 -0.34375846 -0.0713182 -0.6295147 0.024165254 -0.66693217 0.47279415 0.21686772 0.38366008 -0.1031799 -0.18852535 -0.056596227 -0.6085855 -0.5872502 -0.3733514 -0.08350962 0.42900738 0.16829292 0.40522206 0.11389683 -0.021044651 0.47538617 -0.082137525 -0.5615678 -0.47657406 -0.87412065 -0.18258089 -0.29462242 -0.018461363 0.10777389 0.25611153 -0.24603042 -0.28825396 -0.06019421 0.05727638 0.5067002 0.1797962 -0.21135797 -0.40442738 -0.15586165 -0.2763262 0.19772756 0.50626314 0.08816861 -0.33964112 -0.1290353 0.057214193 0.09355294 -0.16306138 0.109449774 -0.8316597 0.30747315 -0.031276602 0.02272589 -0.5636967 0.38750952 -0.6032553 0.24354255 0.6272689 0.046902727 0.23113324 0.29206327 0.021591635 -0.352295 -0.6567845 0.31051412 -0.36208978 -0.12755688 -0.26842615 0.61854225 0.17847751 -0.053597536 -0.037911825 0.6274872 0.39914227 0.085812345 0.34762082 0.114444934 -0.09039792 0.0626896 0.7655812 0.35153103 0.31228834 -0.1694523 0.107058786 -0.25424263
293 -0.22644289 0.31886825 0.12365857 0.2867583 0.1018085 -0.6285429 0.19272646 0.7976137 -0.3369832 -0.27651697 -0.3934409 -0.628458 -0.27433375 0.08586756 0.19067918 -0.20281929 0.009132801 -0.4329937 0.10644358 -0.66041386 0.17916825 0.077381834 -0.057004027 -0.3037718 -0.108795874 -0.06395076 -0.43498492 -0.10392143 -0.38916123 0.1194649 0.5223672 -0.15822306 -0.077562265 -0.1405279 -0.06302168 0.49056023 0.26477125 -0.47041973 -0.10426367 -0.74192995 0.062501006 -0.427789 -0.13540478 0.115654945 0.20729062 -0.0620802 -0.23406915 0.09335163 0.016273046 0.20328958 0.0422099 -0.29965472 -0.19452165 0.21931326 -0.44537935 0.32202494 0.23530976 0.033456814 -0.33118394 0.014720403 0.074762896 0.26552725 -0.20476379 0.06732049 -0.33462673 0.26897785 0.15381849 0.113767445 -0.29153723 0.50001985 -0.37724468 0.32919905 0.41829714 -0.25154996 0.36321262 0.2854124 -0.1060707 -0.16690928 -0.15954281 0.04796658 -0.04233911 -0.042924337 -0.12438781 0.55277073 0.047510512 0.055715118 -0.27291834 0.43376553 0.3977082 0.18072434 0.2874285 0.19423442 -0.14962249 0.16064188 0.6104484 0.28062317 0.053093463 -0.39019474 0.24539627 -0.009334473
48516 -0.39292145 0.53058034 -0.0352752 -0.05636021 -0.13273568 -0.82149214 0.24676672 0.90177315 -0.26903138 -0.18695655 -0.3833866 -0.71523976 -0.26280132 0.04257474 -0.0028120934 -0.39023212 -0.0350995 -0.6292292 -0.0038996458 -0.77579075 0.4242337 0.073157355 0.06004824 -0.17340553 -0.19814289 -0.16632688 -0.5540091 -0.5933289 -0.5695299 0.06619073 0.589028 0.11969987 0.08939083 -0.07153861 0.0038740928 0.53382623 -0.12309683 -0.54774636 -0.22447392 -1.0298517 0.057239898 -0.46900654 -0.114211455 0.026751643 0.3549417 -0.27201286 -0.342439 -0.021963725 0.1988803 0.34755895 0.15987149 -0.40459454 -0.21372578 0.07503231 -0.4693387 0.4006204 0.44519547 0.07210932 -0.5129483 -0.010913207 0.16625689 0.21674931 -0.32954726 0.108767234 -0.68362385 0.37369463 0.13226321 0.11844158 -0.4726544 0.44120178 -0.5514287 0.24294768 0.6485328 -0.2715019 0.3541351 0.5110696 -0.06357724 -0.20803176 -0.46177858 0.18568069 -0.24144296 -0.077429265 -0.19727695 0.82133853 0.2628133 0.07392155 -0.18938148 0.63172567 0.53742915 0.15519583 0.44589418 0.11195128 -0.15687211 0.11012104 0.7822418 0.43030623 0.23743458 -0.57647866 0.26616558 0.01677683
4995 -0.37605676 0.52661145 -0.0026264067 -0.066849574 -0.12856634 -0.85873544 0.18268536 0.89672816 -0.29331627 -0.16305618 -0.31797206 -0.6591524 -0.2505288 0.06980329 0.009755389 -0.37574407 -0.025653297 -0.60751665 0.009139302 -0.7150635 0.36017758 0.010644475 0.027995659 -0.12319508 -0.22240335 -0.18217628 -0.5516534 -0.61966753 -0.5893617 0.09492878 0.53457606 0.13054356 0.009818031 -0.106939286 0.0036728154 0.4344942 -0.25274757 -0.44017684 -0.09232501 -1.0537535 0.08204918 -0.4441271 -0.033855595 0.022930922 0.31176767 -0.3428647 -0.37825525 -0.010361946 0.23763679 0.29816017 0.115839586 -0.34568277 -0.10212964 0.0034857884 -0.29501662 0.37692544 0.47705805 0.13496977 -0.4670505 0.08156177 0.19209825 0.0610408 -0.3022054 0.13196394 -0.6957091 0.38161987 0.19322203 0.16207384 -0.40435705 0.378913 -0.48374888 0.11088669 0.60754484 -0.26856238 0.29854116 0.5569005 -0.05498417 -0.103176475 -0.37274307 0.1419403 -0.13711922 -0.004267291 -0.17932448 0.77296704 0.29031825 0.052217197 -0.10531236 0.54941493 0.5376275 0.15990192 0.40148693 0.07331179 -0.16690843 0.023097342 0.681445 0.3150991 0.22236313 -0.49969187 0.28580162 -0.03602283
3147 -0.35198072 0.49529907 -0.046125844 -0.05717694 -0.100925 -0.7738716 0.24708292 0.8280942 -0.27064914 -0.17081381 -0.32940593 -0.6232038 -0.29965198 0.014266847 0.009036926 -0.32687342 -0.03157419 -0.5648058 0.027910663 -0.76830834 0.3840462 0.036195647 0.103758976 -0.12392967 -0.17485358 -0.13260984 -0.5695403 -0.5444333 -0.52718043 0.06315541 0.55995184 0.11747756 0.08983339 -0.064156264 0.0067547513 0.4423024 -0.1620585 -0.4975964 -0.21771495 -0.9804894 0.029232861 -0.44004804 -0.08911259 0.045930274 0.3263253 -0.26704296 -0.3402276 -0.02995747 0.19177702 0.34631965 0.12352232 -0.32621333 -0.1730488 0.0249534 -0.3593114 0.31555882 0.44962558 0.081756495 -0.46695545 0.00944285 0.15496917 0.102932766 -0.26980406 0.10795257 -0.6797864 0.32626423 0.18882394 0.11630251 -0.45095518 0.3611534 -0.5131051 0.18934312 0.5694774 -0.21005754 0.3029265 0.46514264 -0.048415415 -0.14058885 -0.43008286 0.18101172 -0.2178593 -0.06674774 -0.14004208 0.754418 0.24879226 0.040347233 -0.13171013 0.54655445 0.4249694 0.09536583 0.39982298 0.124986075 -0.15008408 0.046842165 0.71746397 0.35594633 0.22663525 -0.504436 0.21667828 0.01577312
6539 -0.3797203 0.55665314 -0.0070110406 -0.082231805 -0.092995115 -0.822158 0.23826699 0.8584627 -0.28248438 -0.19019909 -0.3148202 -0.67734116 -0.2815201 0.07311044 0.025802147 -0.38694617 -0.01183239 -0.5657994 -0.039164223 -0.72155446 0.34401152 0.009024273 0.016713452 -0.14291081 -0.17928046 -0.17395718 -0.5023619 -0.56094676 -0.536549 0.041978437 0.53934234 0.10120236 0.025260702 -0.10182381 0.008435314 0.47213835 -0.14791825 -0.50690037 -0.12614848 -1.0273526 0.04177679 -0.45458257 -0.04517891 0.04551506 0.3301303 -0.3472725 -0.38633716 -1.3252295e-05 0.21038188 0.35735694 0.1576207 -0.3819845 -0.16159211 0.033646487 -0.42002174 0.39455932 0.44497272 0.09836081 -0.48397386 0.010738452 0.18401158 0.12094588 -0.33419496 0.1271264 -0.68077195 0.3821648 0.17146072 0.14353071 -0.39797524 0.37799647 -0.49313742 0.17841806 0.6360421 -0.27411136 0.31121376 0.5306222 -0.027295291 -0.1419995 -0.3886485 0.17349683 -0.17818959 -0.047289357 -0.17074905 0.79404503 0.3149581 0.087361895 -0.1496905 0.5399952 0.49874786 0.197758 0.42086157 0.11356392 -0.18646106 0.047904685 0.7066313 0.38032374 0.25119355 -0.56517637 0.24206538 -0.026925148
6874 -0.41074073 0.6150714 -0.027459092 -0.06373525 -0.07650393 -0.89379776 0.27228162 0.9707218 -0.31301382 -0.21484831 -0.3647296 -0.7493136 -0.31636727 0.07253562 0.037963353 -0.43431166 -0.021563241 -0.631794 -0.033257317 -0.82808906 0.3857408 0.032449655 0.05423759 -0.1868036 -0.19619177 -0.1846121 -0.5854977 -0.6237283 -0.60336024 0.058569074 0.61438566 0.09130595 0.05478502 -0.110086635 -0.01080263 0.5448837 -0.12627098 -0.56606483 -0.17497115 -1.127527 0.036973774 -0.5000465 -0.06009005 0.057925258 0.36323044 -0.3529074 -0.41547522 0.000677159 0.21000068 0.40523222 0.18555537 -0.41828835 -0.20742442 0.04128312 -0.49718097 0.42785695 0.50464094 0.11278799 -0.547331 0.009987765 0.20621023 0.17190883 -0.35168028 0.14182907 -0.7509819 0.39389428 0.16929547 0.14372417 -0.47342637 0.43741214 -0.559319 0.21856953 0.7065103 -0.272615 0.35819772 0.54586 -0.059801403 -0.16574052 -0.4456875 0.1851885 -0.22087157 -0.07346898 -0.19353777 0.8819942 0.31496978 0.10348395 -0.1607677 0.6242503 0.5585168 0.21912143 0.47729224 0.1466122 -0.1834728 0.07962391 0.8121345 0.43104517 0.26422107 -0.6130681 0.26124147 -0.042041373
541 -0.2895683 0.3447995 0.11366187 0.14608084 0.10915025 -0.6261804 0.2300265 0.81137 -0.31917322 -0.22447366 -0.3559704 -0.6509105 -0.3156456 0.009475017 0.265817 -0.24628814 0.06836093 -0.504121 0.22562136 -0.66576403 0.24643321 0.18127245 -0.0073482455 -0.19521116 -0.10524343 -0.0032257526 -0.49648845 -0.13498136 -0.42882752 0.05581831 0.575748 -0.14665556 -0.034248266 -0.15023848 -0.088387646 0.5164046 0.22696537 -0.5121633 -0.2587065 -0.72909343 0.066178136 -0.43719643 -0.09514023 0.1457472 0.29405954 -0.059294518 -0.1975972 -0.043356545 0.019055687 0.25868344 0.047137134 -0.29057068 -0.22968 0.15538459 -0.39091694 0.4006594 0.29516953 0.14957613 -0.34954283 0.017182054 -0.0102230245 0.2873783 -0.24327803 0.1316512 -0.31705725 0.30244893 0.09135011 0.12598659 -0.33191273 0.5247885 -0.43248048 0.37196288 0.4840128 -0.18344998 0.36394766 0.26044616 -0.16206668 -0.22077237 -0.2406635 0.07347161 -0.13715118 -0.064713165 -0.1331981 0.633427 0.044058036 0.10500029 -0.22602132 0.48847988 0.47832364 0.23644756 0.341213 0.07700745 -0.15299201 0.118061386 0.65879124 0.4013348 0.13860685 -0.39294577 0.27975297 -0.026295532
4886 -0.38626784 0.5336856 -0.00045342368 -0.052186117 -0.1327127 -0.88495225 0.18368177 0.94355834 -0.29666167 -0.1586963 -0.33256552 -0.69639164 -0.27323923 0.07252136 0.024372134 -0.37476432 -0.040516842 -0.6641451 0.030302886 -0.7863351 0.38634342 0.04512764 0.038381647 -0.113990024 -0.22859691 -0.1859124 -0.5884236 -0.6208487 -0.6242265 0.101445355 0.5901891 0.119300924 0.039021555 -0.096914165 0.0044521815 0.4858465 -0.24282458 -0.48969567 -0.12979104 -1.104648 0.06912434 -0.4924063 -0.060695928 0.048500426 0.33858192 -0.32828397 -0.40324187 0.0012925664 0.21924731 0.33541802 0.1394499 -0.34312406 -0.13015929 0.0018374948 -0.31963232 0.40193567 0.5088749 0.11957193 -0.49573547 0.060954906 0.18289346 0.081537545 -0.32551172 0.12969764 -0.74410194 0.39069146 0.19913666 0.18535556 -0.44510138 0.41883492 -0.52672154 0.13049601 0.62528676 -0.26249158 0.33185136 0.56653357 -0.07848018 -0.11678149 -0.4094972 0.15380535 -0.1650935 -0.030399758 -0.20044905 0.8303715 0.30805448 0.06563037 -0.11921112 0.5925185 0.5562315 0.15131791 0.43327895 0.0767767 -0.17123279 0.054468967 0.7269876 0.37247106 0.22904132 -0.503336 0.27768618 -0.03218367
1206 -0.07242551 0.6165581 0.06550149 -0.32966834 -0.15160093 -0.69336385 0.4537394 0.71527725 -0.20059144 -0.13712786 -0.09630574 -0.7148485 -0.23724756 -0.04821862 -0.015719267 -0.32451102 -0.13085575 -0.6656294 0.049221452 -0.65153164 0.48703325 0.26912034 0.45627835 -0.114649415 -0.19075003 0.0233276 -0.6128673 -0.5747473 -0.35782048 -0.12825938 0.38949025 0.21947172 0.51206005 0.19284962 -0.0457474 0.5018104 0.032721397 -0.49180594 -0.6150897 -0.7854841 -0.26763 -0.2442939 -0.047840215 0.15691319 0.24196324 -0.28551975 -0.19972177 -0.026528824 0.0011851636 0.5903497 0.14009333 -0.1586041 -0.42560416 -0.2188977 -0.24343167 0.15232043 0.4915445 0.1494403 -0.27677774 -0.20184276 0.02432922 0.107674465 -0.06202612 0.11954133 -0.8511509 0.27479154 -0.055356458 -0.002712532 -0.62692785 0.37511945 -0.6271918 0.36117575 0.63921213 0.17848954 0.22581859 0.22755116 0.012260521 -0.42381492 -0.70509255 0.445478 -0.40083924 -0.2152223 -0.29532856 0.57445896 0.17760924 -0.123489894 0.061280977 0.67014736 0.37947053 0.11657488 0.32927927 0.19460736 -0.027869083 0.057220962 0.7833757 0.4130218 0.40879357 -0.014201408 0.08285416 -0.32466108
1200 -0.035234135 0.58273137 0.07805396 -0.37230915 -0.12294375 -0.63653934 0.45335484 0.6395063 -0.17033167 -0.12162353 -0.039497532 -0.67902184 -0.19196364 -0.05869578 -0.027435143 -0.28042164 -0.15018776 -0.6098518 0.05611204 -0.5797664 0.4474413 0.2785797 0.48852107 -0.093452014 -0.19000398 0.051432837 -0.54924816 -0.5272708 -0.29343542 -0.16146766 0.32713312 0.21804708 0.5472432 0.23505019 -0.07951925 0.44642213 0.048155196 -0.42601487 -0.61769825 -0.6843516 -0.2761342 -0.16847947 -0.030051667 0.16563526 0.2175964 -0.26159912 -0.15559307 -0.050232988 -0.044445507 0.5772227 0.121573284 -0.09693808 -0.41221648 -0.25337744 -0.188041 0.08814759 0.4643675 0.15397514 -0.22486092 -0.23277491 0.002470119 0.09241539 -0.030886682 0.09592848 -0.8109345 0.23389328 -0.086126395 -0.02593279 -0.60039026 0.31628612 -0.6054413 0.35343882 0.5981708 0.24855047 0.19978724 0.1691653 0.028124474 -0.43254212 -0.7063617 0.45334193 -0.4047295 -0.22641212 -0.28153586 0.4851924 0.15229128 -0.1406354 0.11154223 0.6145285 0.3155206 0.07637433 0.26581433 0.19137609 0.0044148993 0.06534158 0.75588334 0.39620033 0.41437784 0.07155946 0.038119327 -0.3287321
780 -0.31699544 0.47096634 0.044079926 -0.07076661 0.0010494934 -0.72936124 0.27207258 0.85109603 -0.28454775 -0.19049415 -0.29870826 -0.71462446 -0.31444836 -0.009266029 0.1259643 -0.33364618 0.0021058782 -0.599811 0.15800133 -0.74814945 0.350112 0.15552904 0.07746324 -0.16530062 -0.160808 -0.028979575 -0.55080694 -0.38969916 -0.48699284 0.027542023 0.59289014 -0.006850815 0.08907702 -0.06934866 -0.05708144 0.49766597 0.05961678 -0.55401677 -0.3274984 -0.8888292 0.01140328 -0.44755164 -0.09688932 0.08364126 0.3143739 -0.21399477 -0.22849724 -0.041619834 0.07755407 0.38030013 0.07987437 -0.31357875 -0.26128975 0.09611262 -0.39091933 0.39797178 0.4209858 0.13122745 -0.3752507 -0.06103137 0.06490739 0.24323933 -0.2718019 0.141063 -0.56314963 0.35037675 0.09786969 0.090036444 -0.457289 0.48041925 -0.54743946 0.34538686 0.5895225 -0.13190314 0.3298339 0.34773833 -0.11890462 -0.24292 -0.430953 0.1915111 -0.2246099 -0.112636246 -0.19854079 0.7489629 0.14509475 0.03999002 -0.16260691 0.5823036 0.4879196 0.21370237 0.3727156 0.09782897 -0.16591708 0.10147949 0.74745893 0.46064284 0.24223202 -0.39442143 0.25191492 -0.050343286
1258 -0.18011817 0.4887711 -0.034290265 -0.1279867 -0.13874304 -0.6999147 0.32352304 0.7516139 -0.21701197 -0.15319164 -0.22075409 -0.63314736 -0.25216025 0.02093917 -0.011627887 -0.31446964 -0.04484184 -0.57304966 0.025865177 -0.65531564 0.408753 0.14870445 0.25864813 -0.10984384 -0.16537227 -0.077745035 -0.56588864 -0.5486211 -0.39592406 -0.02670916 0.44237226 0.14640783 0.26757023 0.051679034 -0.02761241 0.45170513 -0.103510976 -0.53890336 -0.3804161 -0.868261 -0.099666126 -0.32538596 -0.038634267 0.06948923 0.25061694 -0.23530972 -0.27759358 -0.048658654 0.08623943 0.4426024 0.15690349 -0.24912354 -0.31488642 -0.08048874 -0.32261416 0.2351372 0.46005514 0.07585483 -0.35002393 -0.06852945 0.08980662 0.10667671 -0.19913875 0.08721939 -0.72576636 0.31571853 0.010335656 0.044793524 -0.48791015 0.3636743 -0.54734415 0.21396132 0.56333923 -0.053837612 0.25658804 0.31520927 -0.014412406 -0.27112263 -0.54537624 0.22682011 -0.3018917 -0.10326998 -0.2224782 0.6279463 0.1836971 -0.0057494594 -0.0693226 0.56804097 0.4048409 0.079893924 0.3523546 0.08744638 -0.11859284 0.072846316 0.700493 0.34035364 0.25891852 -0.28653684 0.1419707 -0.1650935
1208 -0.08593201 0.60610443 0.061148074 -0.30371544 -0.16107187 -0.6951369 0.42155144 0.72048247 -0.20880094 -0.15486662 -0.08725086 -0.71389633 -0.23670857 -0.023472551 -0.036889162 -0.32195908 -0.1259304 -0.6625475 0.039192725 -0.6245226 0.46457037 0.2465063 0.4545472 -0.09607821 -0.19847965 0.019330284 -0.61279625 -0.56377715 -0.35699442 -0.1397999 0.37017772 0.21129607 0.5017082 0.19712666 -0.047882088 0.48689967 0.01272476 -0.5183727 -0.5902766 -0.79935664 -0.27168816 -0.22993143 -0.022155486 0.1507447 0.2374437 -0.27849483 -0.2274623 -0.037645873 0.021206843 0.58306825 0.15345456 -0.14439562 -0.43044987 -0.22954701 -0.23807646 0.13702656 0.50075334 0.13520643 -0.2968934 -0.21077792 0.030684136 0.10373513 -0.07204431 0.12680437 -0.87335634 0.26786363 -0.045468822 -0.0016052217 -0.6017156 0.3768326 -0.60705703 0.32475126 0.64052314 0.17368555 0.23463653 0.25447965 0.011089791 -0.41081312 -0.6991638 0.42593783 -0.40492743 -0.18417181 -0.27542043 0.564572 0.17948931 -0.11509605 0.058775596 0.66668963 0.3797468 0.10473896 0.33064938 0.19930106 -0.028900873 0.06543421 0.78136593 0.41195768 0.3872838 -0.022935418 0.057335474 -0.3083728
4963 -0.36784878 0.5082941 -0.01460744 -0.06364034 -0.12171327 -0.82207364 0.16063865 0.87590873 -0.2821967 -0.16837458 -0.30244842 -0.63447726 -0.24313459 0.05252906 0.008529009 -0.3546186 -0.01653492 -0.614441 0.020875491 -0.72083443 0.33940908 0.028058374 0.026293809 -0.11600213 -0.21270043 -0.1816905 -0.556361 -0.58428687 -0.5632963 0.08530142 0.5275862 0.12543435 0.009720292 -0.11216708 0.010852409 0.44950125 -0.24607944 -0.45249802 -0.103369385 -1.027449 0.0720636 -0.43262613 -0.05833624 0.021460151 0.321649 -0.3206763 -0.37606022 -0.0072181034 0.20319135 0.3015872 0.11138257 -0.32548657 -0.10726452 0.018608177 -0.28229257 0.37160748 0.449163 0.12684269 -0.46211126 0.07580306 0.18023373 0.06317462 -0.28703603 0.11409895 -0.68879193 0.35441664 0.2002438 0.17632087 -0.40150654 0.38304737 -0.47264436 0.1280422 0.5685002 -0.2514189 0.28028256 0.53709406 -0.06469046 -0.11034539 -0.3635786 0.13678303 -0.15295286 -0.014185328 -0.18234475 0.7708214 0.28566536 0.048691526 -0.10097634 0.54679185 0.5128747 0.16166641 0.37969786 0.06260421 -0.13602298 0.04618353 0.66740215 0.3161099 0.2233835 -0.472426 0.28148684 -0.036501683
912 -0.2982393 0.45313397 0.028741786 -0.12204466 -0.022846477 -0.7042454 0.2937987 0.7753941 -0.25366464 -0.15199544 -0.26254535 -0.68066734 -0.28013393 -0.019802744 0.080732085 -0.30519304 -0.0444284 -0.57643586 0.11630839 -0.7213602 0.3492732 0.15391621 0.079469115 -0.13715804 -0.16855662 -0.009466625 -0.5050328 -0.418736 -0.45650434 0.009310777 0.56912225 0.0462161 0.12113766 -0.033791177 -0.0340998 0.4716524 0.045679733 -0.51494825 -0.32655954 -0.88085455 -0.0034199504 -0.43089163 -0.10834536 0.07283558 0.28605807 -0.23793554 -0.2198397 0.0065546962 0.05866345 0.3698363 0.084592596 -0.30968153 -0.24345972 0.06029044 -0.38009885 0.35289645 0.422962 0.15131022 -0.36783788 -0.08428798 0.05888134 0.21736978 -0.24808648 0.14375994 -0.6004841 0.3536563 0.08128303 0.06778556 -0.4509646 0.4486398 -0.54758334 0.3267251 0.58080864 -0.09708107 0.30655557 0.31982684 -0.08266008 -0.2072471 -0.43197227 0.20553997 -0.24722123 -0.12530331 -0.20130841 0.6993707 0.1626895 0.023001114 -0.11648041 0.57127476 0.44513378 0.19034609 0.33719984 0.14071408 -0.13742606 0.093481295 0.733248 0.43498388 0.26668122 -0.36459166 0.24316132 -0.06606516
595 -0.29199815 0.34385708 0.080730826 0.05941389 0.07933755 -0.5894606 0.20589738 0.75010854 -0.29086745 -0.16815826 -0.30447593 -0.608525 -0.29399684 -0.007804602 0.21975444 -0.25775713 0.07381698 -0.48677203 0.19501619 -0.608304 0.26502278 0.16987823 -0.012073806 -0.15401664 -0.12117598 0.00042365867 -0.46555573 -0.18324396 -0.41600633 0.04393833 0.54895943 -0.10644205 -0.025028737 -0.11786318 -0.08365154 0.47722375 0.16354322 -0.4877428 -0.26668575 -0.7056492 0.048619848 -0.4005046 -0.08314303 0.13014708 0.3008842 -0.0952635 -0.17341462 -0.05460478 0.046277467 0.2569771 0.0747344 -0.2843362 -0.19715372 0.11739992 -0.35909024 0.40180194 0.31035674 0.12826453 -0.33570912 -0.015281174 -0.0084641045 0.26667383 -0.2448724 0.12044934 -0.31369922 0.30035248 0.07416269 0.124378495 -0.33845595 0.45391184 -0.4211202 0.33370024 0.4788452 -0.15760723 0.32234174 0.28838062 -0.15183295 -0.1974798 -0.26553082 0.08434689 -0.15779968 -0.08875131 -0.13993749 0.6172954 0.058820494 0.107470945 -0.19473287 0.45597515 0.45739433 0.24407624 0.3313328 0.06982748 -0.1467737 0.07765681 0.6339519 0.39288276 0.1517075 -0.37068537 0.275846 -0.01971828
8961 -0.36302203 0.54256964 -0.02504431 -0.07372348 -0.10075267 -0.79676485 0.2436143 0.8635078 -0.282844 -0.17366825 -0.34550285 -0.6634589 -0.26917443 0.03915574 0.008617717 -0.372649 -0.028160393 -0.5940058 -0.02092635 -0.75010604 0.37576926 0.067601 0.043819584 -0.16092937 -0.17363197 -0.1376153 -0.53180176 -0.55226344 -0.5494878 0.04871818 0.55355406 0.110476874 0.062409703 -0.083655775 -0.009052882 0.49450997 -0.117442064 -0.5119764 -0.1815589 -1.0126356 0.021526664 -0.458388 -0.063776664 0.041877486 0.33123645 -0.2970206 -0.35820535 0.0048373966 0.16435792 0.36896935 0.13812546 -0.36669865 -0.1976067 0.03853082 -0.4412563 0.37555224 0.43780658 0.09989432 -0.5005872 -0.0063043283 0.16487792 0.16344675 -0.30979368 0.11897066 -0.6811982 0.36664918 0.16227311 0.1236009 -0.44481403 0.40701002 -0.4968218 0.22823343 0.6320162 -0.2229394 0.3310254 0.48786154 -0.06321083 -0.16517156 -0.4130507 0.18130827 -0.20222323 -0.06399771 -0.17568323 0.7852796 0.28396186 0.071989425 -0.1427057 0.5935729 0.4887906 0.16315609 0.4276566 0.12951109 -0.17549737 0.086392276 0.7339165 0.40677044 0.24266864 -0.56017137 0.24535342 -0.01395965
1222 -0.09405924 0.5473281 0.010085445 -0.21645364 -0.14434385 -0.66327536 0.36288273 0.71050835 -0.21287392 -0.12605712 -0.13699318 -0.6152661 -0.26225305 0.004472625 -0.0217827 -0.32644686 -0.09178181 -0.59461385 0.039834253 -0.6049567 0.4349829 0.22242002 0.35973603 -0.094216555 -0.17593782 -0.055573843 -0.58394545 -0.5644908 -0.347001 -0.085008346 0.38201365 0.1687698 0.41410378 0.12219966 -0.0162268 0.4548064 -0.055076312 -0.51831853 -0.46864647 -0.7951479 -0.17607802 -0.26295963 -0.009055269 0.120748736 0.23993954 -0.23326646 -0.25760257 -0.032870278 0.052920736 0.49053618 0.17071584 -0.1577752 -0.3863611 -0.16422126 -0.24648581 0.16807273 0.4718123 0.11849664 -0.29569006 -0.15150735 0.040356155 0.111271665 -0.12545614 0.093672566 -0.7868032 0.26648805 -0.029175496 0.007399442 -0.54613 0.35005787 -0.553203 0.26028356 0.595183 0.07576343 0.22380663 0.26296756 0.022202801 -0.33229327 -0.6390078 0.3116375 -0.35229146 -0.1299064 -0.25096142 0.5657015 0.17977616 -0.056476936 -0.011855557 0.6200326 0.38898224 0.08868552 0.3269249 0.133531 -0.08853535 0.05694027 0.71634907 0.3454569 0.3067318 -0.12334355 0.09183848 -0.2626294
380 -0.26446745 0.35750934 0.08474155 0.23102888 0.087570146 -0.6769205 0.20435755 0.82242113 -0.30157658 -0.24082576 -0.38639435 -0.634391 -0.30879927 0.06623028 0.23439665 -0.2050868 0.04366791 -0.44740906 0.19949569 -0.67041516 0.22070314 0.14859624 0.0050769327 -0.24874316 -0.10551266 -0.038562555 -0.45742187 -0.12025178 -0.4051716 0.1284706 0.5663641 -0.15440825 -0.031949487 -0.15037234 -0.07055527 0.5015587 0.21263452 -0.5016644 -0.15395218 -0.7417504 0.066244476 -0.43802714 -0.10695124 0.13624711 0.2803981 -0.033787567 -0.22147183 -0.030454744 0.046263598 0.19927898 0.059686504 -0.26907435 -0.2227976 0.1806786 -0.41664237 0.3730421 0.29709357 0.10148691 -0.34575495 0.04713606 0.039030183 0.24693455 -0.24454053 0.1213665 -0.3067478 0.30472988 0.11330421 0.11851555 -0.2819164 0.51447445 -0.42369035 0.28787395 0.4393787 -0.20051926 0.3330336 0.2921941 -0.15123668 -0.19883284 -0.21040078 0.08132043 -0.088400826 -0.030298809 -0.070731565 0.5741985 0.095830716 0.09502622 -0.24950922 0.45610264 0.42723903 0.19793418 0.35012037 0.09479125 -0.16764002 0.09978883 0.65199524 0.30960727 0.12229753 -0.4152905 0.24395476 0.00057684624
750 -0.28302467 0.37873775 0.06976959 -0.030813357 0.045311533 -0.5951416 0.24133919 0.7370595 -0.24171193 -0.17169839 -0.26051778 -0.59931153 -0.27938062 -0.014212351 0.1475192 -0.27361006 0.027248245 -0.50442225 0.17043306 -0.6366041 0.29388046 0.1516245 0.034447063 -0.14129943 -0.11587342 0.00039715917 -0.46449065 -0.25929254 -0.41920963 0.0149951 0.511472 -0.02863623 0.0389932 -0.07948066 -0.06535705 0.4461074 0.13689987 -0.49006173 -0.29796392 -0.734143 0.009132734 -0.38122126 -0.0761959 0.08691786 0.28480685 -0.16108285 -0.16925399 -0.016527457 0.04433098 0.306743 0.058917273 -0.267855 -0.2249402 0.10080476 -0.34986103 0.34326544 0.35176465 0.13631669 -0.31030548 -0.06497704 0.024654951 0.24157019 -0.21507254 0.123599075 -0.43959665 0.31522444 0.06785485 0.0877008 -0.38356996 0.43225116 -0.46909425 0.34416735 0.48691684 -0.11233764 0.30625403 0.27675313 -0.12358283 -0.20682381 -0.35052037 0.13341439 -0.18552834 -0.0889312 -0.1709914 0.63191694 0.10852238 0.063047096 -0.12990049 0.48166996 0.42096484 0.21713285 0.31880945 0.093808845 -0.13534287 0.094352715 0.6614562 0.42392573 0.19554639 -0.33281696 0.25167906 -0.05443689
1682 -0.29933226 0.4774437 -0.03388658 -0.05128789 -0.12503621 -0.6905143 0.2742113 0.746577 -0.24774133 -0.15897976 -0.29102716 -0.6193027 -0.27387607 -0.006816286 0.0021012977 -0.2986708 -0.041538823 -0.5285882 0.015226743 -0.70025367 0.33436975 0.102257274 0.12845902 -0.10702696 -0.15095906 -0.098664165 -0.49987456 -0.5302783 -0.41988114 0.03263768 0.49950165 0.10208466 0.12702823 -0.012610666 -0.023309775 0.46800178 -0.09382463 -0.52266544 -0.22988527 -0.9288841 0.030221771 -0.39506966 -0.09587394 0.020831563 0.26904488 -0.24691613 -0.32505754 -0.019453501 0.14076154 0.33642015 0.11911078 -0.30143905 -0.22185893 0.006659321 -0.373191 0.31437543 0.38753897 0.06937502 -0.37870163 -0.007410905 0.15262677 0.15396315 -0.25010067 0.100146905 -0.63960785 0.32392824 0.1347187 0.07765703 -0.4284357 0.3524484 -0.52173996 0.2323561 0.5452255 -0.12991032 0.2665872 0.4294445 -0.06667643 -0.19859372 -0.41070893 0.15704022 -0.18661156 -0.11043068 -0.1929646 0.71042633 0.206993 0.043402027 -0.111768134 0.49554405 0.3761593 0.086366415 0.3750993 0.12099635 -0.11866502 0.06718902 0.7058492 0.328312 0.22761022 -0.45161766 0.17811011 -0.04263773
648 -0.2855595 0.36296684 0.06641522 0.009359425 0.05480026 -0.62232155 0.21300267 0.7677709 -0.2580061 -0.16920099 -0.29541487 -0.61569697 -0.30112216 -0.0074724057 0.16342448 -0.26845738 0.04358932 -0.52191854 0.16425249 -0.62787753 0.2856429 0.16416313 0.026300881 -0.14370777 -0.11642521 -0.0011117385 -0.4939451 -0.25282598 -0.42155686 0.043143917 0.5333902 -0.056894656 0.018899072 -0.10224817 -0.07371972 0.4728367 0.11778513 -0.5011234 -0.28571132 -0.7439597 0.031159585 -0.39442626 -0.085032225 0.10219519 0.29984784 -0.1518652 -0.19026144 -0.050614595 0.07273204 0.29159424 0.06463949 -0.2824194 -0.22340813 0.118064374 -0.35249612 0.38365644 0.35362676 0.12514134 -0.33386093 -0.032189377 0.0118313525 0.23621444 -0.24442318 0.12372411 -0.41138458 0.30716187 0.072026774 0.09482618 -0.35574314 0.44765162 -0.4624005 0.32617366 0.48730063 -0.13383442 0.31146622 0.30402365 -0.12246114 -0.21806625 -0.3284453 0.114137836 -0.16258536 -0.09037787 -0.15104507 0.6407412 0.081947155 0.07997263 -0.17444898 0.5017626 0.43378514 0.22692433 0.33255726 0.069546886 -0.1519519 0.08753558 0.6555605 0.41077077 0.17650653 -0.3571509 0.25133377 -0.038812127
1073 -0.29935694 0.52124524 0.03487846 -0.16241421 -0.043781813 -0.7438976 0.32203397 0.81464356 -0.22663464 -0.16677935 -0.25449294 -0.7037256 -0.24063435 -0.010536398 0.055699766 -0.33168322 -0.07239491 -0.60252684 0.09177918 -0.73492944 0.39379406 0.1404146 0.1571237 -0.14877929 -0.1494559 -0.029826267 -0.54930013 -0.45954144 -0.46264386 -0.009889 0.5321697 0.083906285 0.16341522 0.01626667 -0.037383027 0.4898121 0.000856697 -0.53334624 -0.34724715 -0.90639985 -0.059953768 -0.40263286 -0.10559795 0.061659373 0.29274294 -0.27800953 -0.2180547 -0.0149426395 0.054151233 0.42105317 0.08939467 -0.27205396 -0.28424054 0.017499292 -0.33719423 0.3184569 0.44311866 0.14785673 -0.380452 -0.08210852 0.09251336 0.17365651 -0.21029766 0.1078607 -0.681186 0.34616533 0.068875566 0.05640247 -0.47478294 0.44019687 -0.54832894 0.32544535 0.61635274 -0.062331773 0.29320964 0.3461363 -0.06125792 -0.2895867 -0.4925907 0.26640373 -0.26351637 -0.15359837 -0.21902367 0.694698 0.18052217 0.0041859034 -0.09347665 0.5913178 0.4504916 0.13427116 0.3579797 0.12795803 -0.10462386 0.09403453 0.7569886 0.41916662 0.29685462 -0.3379452 0.1942883 -0.101102844
4878 -0.34930846 0.49143708 -0.0029242523 -0.06382946 -0.11706655 -0.7723112 0.16118543 0.8273458 -0.25595602 -0.143808 -0.3045202 -0.6077806 -0.25495574 0.05657132 0.02152198 -0.34207013 -0.036975604 -0.5708359 0.01974396 -0.6840619 0.3326219 0.03088507 0.041279756 -0.09792349 -0.20084551 -0.17340086 -0.5292483 -0.55332434 -0.5349941 0.074834764 0.5058361 0.09881329 0.030354375 -0.087879315 0.007622067 0.41200635 -0.19866496 -0.4219187 -0.113221966 -0.96970993 0.057075754 -0.4154868 -0.06533363 0.02783995 0.288708 -0.29455048 -0.3605579 -0.005464457 0.20907257 0.31141853 0.09883689 -0.3004998 -0.105306126 5.235218e-05 -0.2858816 0.35808972 0.44980478 0.10372488 -0.43357038 0.044363827 0.1508027 0.077791356 -0.28525522 0.10913742 -0.66301227 0.32720965 0.17232324 0.15219285 -0.39700702 0.37371346 -0.45098916 0.11551453 0.5462986 -0.22981752 0.2747336 0.48439205 -0.052440785 -0.10832645 -0.3760181 0.154705 -0.16621529 -0.03870769 -0.16535269 0.73474133 0.25895163 0.046209086 -0.109224916 0.527489 0.48837534 0.13759866 0.35826665 0.07242802 -0.13683058 0.04277031 0.6513882 0.32374525 0.21399635 -0.44960532 0.24993302 -0.03226779
377 -0.26305178 0.36700955 0.078368016 0.22737773 0.08245771 -0.6857958 0.21486364 0.80720776 -0.29775456 -0.23979808 -0.36552736 -0.61569786 -0.29478833 0.0723606 0.22536768 -0.20344065 0.035884485 -0.43568942 0.17990716 -0.6693876 0.21150202 0.13207899 -0.00031236993 -0.2444317 -0.10375952 -0.045659613 -0.45487675 -0.14824183 -0.3945877 0.12328761 0.55677736 -0.13106638 -0.033917256 -0.14198057 -0.070646286 0.48180026 0.19516326 -0.4822816 -0.15550137 -0.74220157 0.07727888 -0.43986368 -0.090852164 0.120684475 0.2608356 -0.049084004 -0.22978126 -0.018974656 0.041050237 0.22728863 0.04801913 -0.27475572 -0.2201236 0.18283568 -0.39596507 0.37637463 0.28409502 0.0946052 -0.35841998 0.03641904 0.052411895 0.22661853 -0.22644849 0.116964914 -0.30207363 0.29383853 0.12957942 0.10477801 -0.28906563 0.51803935 -0.4097222 0.28126198 0.44751686 -0.2191373 0.33508664 0.30049014 -0.1435583 -0.1832213 -0.21639736 0.08822655 -0.08883961 -0.03415088 -0.08683457 0.5560617 0.08431125 0.07864141 -0.25797328 0.46262637 0.43299606 0.19205709 0.3517951 0.104167625 -0.16286 0.11033957 0.64615524 0.3063522 0.120542794 -0.40902245 0.22059785 0.013523981
1097 -0.22794086 0.5339294 0.061981067 -0.2210523 -0.052644707 -0.71399075 0.35138217 0.7529768 -0.2019274 -0.15794763 -0.19639717 -0.7031724 -0.2229755 -0.017791117 0.028423155 -0.29874468 -0.0994256 -0.5927519 0.07834245 -0.69457 0.38533092 0.18020913 0.2386813 -0.12688439 -0.16860205 0.00372702 -0.53764766 -0.47822055 -0.4290973 -0.026374042 0.48770094 0.10632008 0.26129314 0.053449314 -0.05020823 0.48707473 0.009588523 -0.49442095 -0.41048104 -0.8455702 -0.10912416 -0.33237404 -0.10316317 0.08838046 0.27829364 -0.26648635 -0.18567787 -0.018250933 0.038765844 0.4433162 0.10740931 -0.23927365 -0.30891883 -0.029030876 -0.2976161 0.26724866 0.43137184 0.14767289 -0.33608916 -0.1276757 0.07079905 0.14710258 -0.16080807 0.12387441 -0.69183165 0.31130826 0.039439756 0.026207337 -0.49862042 0.4037432 -0.56240684 0.34712633 0.60881907 0.00889465 0.27150777 0.30516288 -0.048149996 -0.33500978 -0.5315294 0.29808497 -0.2942199 -0.16686292 -0.23536812 0.6434904 0.15666066 -0.043183617 -0.041279085 0.6013893 0.40625614 0.13686776 0.3389422 0.15934852 -0.07915836 0.09704571 0.76286006 0.4162228 0.3192614 -0.23468025 0.16421045 -0.17005013
1580 -0.32427025 0.5158505 -0.03949765 -0.04816845 -0.1204422 -0.7400839 0.28708425 0.8094175 -0.24049509 -0.16714792 -0.3354476 -0.67559683 -0.29153118 0.01980802 -0.009756534 -0.3151818 -0.04759238 -0.5837011 0.031821292 -0.754197 0.35464656 0.11028637 0.1326851 -0.1433106 -0.16893466 -0.10906887 -0.53486294 -0.5494095 -0.46735537 0.037157305 0.5392981 0.1015135 0.12997584 -0.012945104 -0.028578619 0.49161857 -0.102457955 -0.5730684 -0.22656356 -0.9811094 0.025653388 -0.4433484 -0.08160101 0.021147124 0.28393215 -0.25713095 -0.34356397 -0.012439486 0.13918607 0.3646101 0.13432877 -0.32150418 -0.22480161 0.017332023 -0.39789945 0.35189506 0.44055653 0.07931423 -0.4295505 -0.015987055 0.15176582 0.16351442 -0.27640125 0.118909255 -0.67433286 0.3359819 0.13107179 0.08833499 -0.45381576 0.39336067 -0.5312097 0.22441062 0.58442235 -0.16140784 0.31852558 0.44741356 -0.0666576 -0.22556192 -0.4192759 0.17365871 -0.22283335 -0.10827128 -0.2068118 0.75703406 0.22938532 0.036044728 -0.13024074 0.5419163 0.41371828 0.10133026 0.39553997 0.11897871 -0.1301413 0.07039034 0.73784894 0.3663414 0.22194637 -0.4855561 0.21903008 -0.04099897
111 -0.18503353 0.31581438 0.09317434 0.19408683 0.060195744 -0.51610523 0.13338377 0.727947 -0.33841494 -0.21994023 -0.34725314 -0.5638674 -0.21099357 0.09208771 0.07849232 -0.22962375 -0.010406261 -0.4336202 0.0394594 -0.61191374 0.19435324 -0.0013451101 -0.052990757 -0.22789614 -0.102422826 -0.07402607 -0.36769167 -0.17894052 -0.35039884 0.104296654 0.4386089 -0.081351735 -0.093337655 -0.108965956 -0.013004877 0.4167186 0.19718339 -0.45439982 -0.09058992 -0.7239202 0.032594375 -0.3814796 -0.14204954 0.083757356 0.15384482 -0.124377355 -0.22772758 0.11967196 0.044746477 0.1956172 0.055949684 -0.29218084 -0.16015351 0.16895515 -0.4072567 0.2420171 0.20777524 0.010826686 -0.33066967 -0.024832504 0.107932776 0.20448616 -0.18388666 0.06455618 -0.39359748 0.2208107 0.16359772 0.118152805 -0.31002542 0.4234379 -0.3524819 0.27676818 0.36940148 -0.26972353 0.30960116 0.28678933 -0.09116788 -0.1113382 -0.15146202 0.07503805 -0.045843195 -0.061077457 -0.16948612 0.5102848 0.064631544 0.021048084 -0.22416215 0.40544835 0.34586868 0.14630748 0.27693927 0.19295833 -0.14405127 0.14362636 0.57061714 0.23583207 0.038799718 -0.38851738 0.19844107 -0.0076761777
924 -0.31759626 0.49410114 0.03181184 -0.12863061 -0.040288568 -0.7360645 0.3091746 0.82533765 -0.24079336 -0.16408387 -0.27528524 -0.7025163 -0.26697412 -0.0059562405 0.0810776 -0.3366166 -0.048766524 -0.59413147 0.117440924 -0.7462927 0.38843116 0.14835393 0.11250974 -0.1322332 -0.16684979 -0.025586372 -0.55107164 -0.45252293 -0.46634454 0.012696405 0.55632246 0.06289697 0.12457471 -0.015495736 -0.034847286 0.48550755 0.02740659 -0.5378475 -0.32869294 -0.908089 -0.03821714 -0.42242897 -0.11036819 0.08059971 0.28745404 -0.24655913 -0.23340021 0.0043365844 0.07265254 0.40963793 0.09350123 -0.30011684 -0.2613984 0.040153556 -0.37762257 0.3475893 0.4448801 0.14820442 -0.38112727 -0.07050871 0.0797756 0.20461655 -0.24467954 0.12508065 -0.6554399 0.35238165 0.07646441 0.082703866 -0.47596878 0.45033762 -0.5606592 0.34242782 0.61083573 -0.10017891 0.31205633 0.34435254 -0.082326494 -0.23303726 -0.4710303 0.22925785 -0.2429649 -0.11826291 -0.20351894 0.72483075 0.18474813 0.021781206 -0.13099746 0.58482987 0.45413613 0.17074387 0.3689672 0.13230132 -0.1369242 0.09824382 0.7673586 0.4486858 0.28587264 -0.36679357 0.22613193 -0.092547655
34 -0.2196014 0.37887815 0.07814501 0.14459662 0.026928393 -0.5946562 0.1713201 0.81996787 -0.37815604 -0.2283178 -0.37157482 -0.6284478 -0.21605279 0.10538195 0.022577163 -0.29469156 -0.03574379 -0.5223649 0.0040762797 -0.7210718 0.27699733 -0.011835732 -0.056670964 -0.20011602 -0.12643269 -0.11413508 -0.42993748 -0.31128836 -0.39584818 0.11102257 0.46832243 -0.0139683 -0.07795049 -0.1158453 0.0074176784 0.4799276 0.14191642 -0.5226445 -0.11846204 -0.90073115 0.025754813 -0.44148982 -0.14498073 0.09947695 0.19662859 -0.19209452 -0.29525006 0.13260078 0.089611016 0.22806847 0.07993101 -0.3165838 -0.19417502 0.16639206 -0.473138 0.24969085 0.2632413 0.0032850394 -0.4172541 -0.020802036 0.13903622 0.21029978 -0.22511974 0.08534162 -0.52756625 0.2523337 0.19883743 0.14590557 -0.38884765 0.45610532 -0.43550158 0.3078925 0.45626265 -0.299953 0.35616383 0.3498194 -0.073002204 -0.15341716 -0.22327967 0.12449441 -0.08789445 -0.07794277 -0.21487741 0.58975816 0.119289845 0.014297199 -0.22016889 0.5052813 0.3984766 0.1417763 0.33701378 0.22820885 -0.17282984 0.14413722 0.6497879 0.28177422 0.07689385 -0.4517211 0.22060582 -0.010378932
5418 -0.34996307 0.49091995 -0.0038881397 -0.07086709 -0.09664694 -0.7791723 0.19917874 0.8183433 -0.25653437 -0.14764924 -0.30544746 -0.62603635 -0.24245036 0.06204656 -0.0037287788 -0.35368544 -0.008476874 -0.55182374 -0.013450194 -0.68228424 0.34728286 0.035099823 0.015463931 -0.13648584 -0.18297453 -0.16491166 -0.5094789 -0.5581811 -0.53644913 0.06476346 0.51016706 0.11641247 0.0053021796 -0.109893896 -0.01535901 0.4259772 -0.20513144 -0.44508776 -0.10085537 -0.9730945 0.050438464 -0.41589424 -0.038220618 0.022763237 0.29389814 -0.31800255 -0.35109282 -0.009196046 0.20540477 0.2933861 0.14055386 -0.33066297 -0.12821387 0.033411395 -0.32899463 0.37076846 0.4194067 0.117203854 -0.44223192 0.044430077 0.16468532 0.09003761 -0.28757444 0.10478448 -0.64108425 0.34079707 0.15694024 0.14697866 -0.36518422 0.3532319 -0.4397852 0.13700393 0.5559249 -0.24255516 0.2770055 0.503117 -0.046486564 -0.104552455 -0.36694962 0.13884108 -0.15452069 -0.02537495 -0.17398553 0.7160051 0.26617002 0.062472247 -0.10288038 0.5042851 0.4809446 0.15072739 0.38797078 0.08346095 -0.15793039 0.025905842 0.6377609 0.31854248 0.21733806 -0.46152687 0.25134292 -0.014219646
5989 -0.3509154 0.5265299 -0.002118361 -0.060022414 -0.09252803 -0.8253334 0.22897516 0.8582113 -0.29465222 -0.16789344 -0.33306444 -0.685532 -0.2671328 0.07092064 0.031510346 -0.37558848 -0.0049618073 -0.5799244 -0.020874312 -0.74442106 0.3581588 0.026192075 0.045087755 -0.14018947 -0.1913339 -0.15079916 -0.52612877 -0.5531056 -0.5462414 0.06277027 0.54717064 0.10789037 0.03477917 -0.10541006 -0.005046692 0.462685 -0.13152763 -0.51915807 -0.15470497 -1.0074325 0.03282561 -0.46764496 -0.061962865 0.026084304 0.334228 -0.33275816 -0.3630599 -0.015908683 0.20896894 0.33727393 0.13862173 -0.35264185 -0.17938516 0.054833215 -0.40318972 0.3736768 0.44562045 0.08937193 -0.4516433 0.027582703 0.17495571 0.11812551 -0.3158497 0.13316393 -0.6792052 0.38541088 0.17460535 0.13265789 -0.4176056 0.40994278 -0.50101894 0.1753513 0.62225884 -0.25913182 0.2873878 0.5141719 -0.045453172 -0.14385912 -0.38458914 0.16806982 -0.1871113 -0.06658659 -0.16252138 0.77282137 0.29809704 0.07542934 -0.15319546 0.5511395 0.5108361 0.17016058 0.41163155 0.10885845 -0.15929005 0.049515273 0.7032277 0.35479164 0.23624575 -0.51708853 0.23756053 -0.02526548
33794 -0.33936912 0.52322334 -0.016055277 -0.046155926 -0.0882197 -0.7641337 0.2369769 0.8415293 -0.27439868 -0.16700631 -0.33995926 -0.6448407 -0.24929579 0.036713745 0.013196806 -0.3671459 -0.0365557 -0.57203925 -0.0045967097 -0.73149866 0.37086102 0.06647412 0.03825638 -0.16410175 -0.17675316 -0.12747043 -0.50899005 -0.52096766 -0.5182995 0.0351736 0.54957986 0.11159888 0.08413187 -0.05910234 -0.0042186244 0.49173194 -0.105082124 -0.50626767 -0.19207272 -0.9690291 0.03781013 -0.42900577 -0.0855329 0.024479445 0.30783734 -0.28688362 -0.34075162 -0.0041429694 0.16857162 0.3434106 0.12418427 -0.35596672 -0.20000726 0.050725974 -0.40998852 0.35952023 0.40554014 0.08875602 -0.4605707 -0.022446783 0.16599105 0.18715486 -0.29369426 0.109388806 -0.6469431 0.35621527 0.15276863 0.09905674 -0.43097913 0.39705023 -0.5070241 0.21703684 0.58877975 -0.23187296 0.32181174 0.45690206 -0.06268328 -0.17813711 -0.40796444 0.18862121 -0.18505958 -0.067436144 -0.1825528 0.7573776 0.26555058 0.07441594 -0.14477386 0.56832784 0.47965103 0.13990466 0.40208232 0.12492329 -0.17228122 0.09536539 0.7290475 0.38203484 0.21346433 -0.5344391 0.24689746 -0.0064360225
60069 -0.36258575 0.53565204 -0.024344774 -0.0642858 -0.09743813 -0.8166619 0.2487238 0.8964 -0.26739606 -0.18281437 -0.35354984 -0.732758 -0.25944754 0.042273898 0.0021623285 -0.40119478 -0.050614905 -0.6153918 0.014571387 -0.7715341 0.42478755 0.078573376 0.07096092 -0.17219414 -0.19529352 -0.1467084 -0.5591709 -0.5652748 -0.5383435 0.07220258 0.6085869 0.11053429 0.083679266 -0.06269555 0.0011020908 0.52137685 -0.08596992 -0.55735046 -0.19867377 -1.0422789 0.048525717 -0.4699076 -0.08812512 0.05252818 0.3403706 -0.27052158 -0.32785517 -0.0043803845 0.19527523 0.37397164 0.14090899 -0.38961115 -0.20538765 0.056135695 -0.42156747 0.39011303 0.46745864 0.0868959 -0.50986356 -0.016897023 0.17313747 0.17973748 -0.3064195 0.10601339 -0.7043687 0.36994326 0.14831291 0.10691206 -0.45365083 0.44316134 -0.55560833 0.21490148 0.62874216 -0.23249392 0.32491198 0.4939967 -0.059086293 -0.20686863 -0.45528498 0.18041681 -0.24948059 -0.076055914 -0.19649519 0.83202136 0.284845 0.057378266 -0.15091324 0.6206021 0.52917004 0.15542473 0.42989168 0.09978325 -0.14896852 0.1014511 0.7579441 0.42172238 0.21350631 -0.56206125 0.24724638 -0.006959788
